{"learner":{"attributes":{"scikit_learn":"{\"_estimator_type\": \"regressor\"}"},"feature_names":["period","shot_open_goal","fk_duration","pass_angle","pass_length","pass_switch","shot_x","shot_y","fk_x","fk_y","shooter_position_Center Attacking Midfield","shooter_position_Center Back","shooter_position_Center Defensive Midfield","shooter_position_Center Forward","shooter_position_Center Midfield","shooter_position_Goalkeeper","shooter_position_Left Attacking Midfield","shooter_position_Left Back","shooter_position_Left Center Back","shooter_position_Left Center Forward","shooter_position_Left Center Midfield","shooter_position_Left Defensive Midfield","shooter_position_Left Midfield","shooter_position_Left Wing","shooter_position_Left Wing Back","shooter_position_Right Attacking Midfield","shooter_position_Right Back","shooter_position_Right Center Back","shooter_position_Right Center Forward","shooter_position_Right Center Midfield","shooter_position_Right Defensive Midfield","shooter_position_Right Midfield","shooter_position_Right Wing","shooter_position_Right Wing Back","shot_body_part_Head","shot_body_part_Left Foot","shot_body_part_Other","shot_body_part_Right Foot","shot_technique_Backheel","shot_technique_Diving Header","shot_technique_Half Volley","shot_technique_Lob","shot_technique_Normal","shot_technique_Overhead Kick","shot_technique_Volley","pass_height_Ground Pass","pass_height_High Pass","pass_height_Low Pass","fk_taker_position_Center Attacking Midfield","fk_taker_position_Center Back","fk_taker_position_Center Defensive Midfield","fk_taker_position_Center Forward","fk_taker_position_Center Midfield","fk_taker_position_Goalkeeper","fk_taker_position_Left Attacking Midfield","fk_taker_position_Left Back","fk_taker_position_Left Center Back","fk_taker_position_Left Center Forward","fk_taker_position_Left Center Midfield","fk_taker_position_Left Defensive Midfield","fk_taker_position_Left Midfield","fk_taker_position_Left Wing","fk_taker_position_Left Wing Back","fk_taker_position_Right Attacking Midfield","fk_taker_position_Right Back","fk_taker_position_Right Center Back","fk_taker_position_Right Center Forward","fk_taker_position_Right Center Midfield","fk_taker_position_Right Defensive Midfield","fk_taker_position_Right Midfield","fk_taker_position_Right Wing","fk_taker_position_Right Wing Back","distance_to_goal","distance_player_1","distance_player_2","distance_player_3","distance_player_4","angle_player_1","angle_player_2","angle_player_3","angle_player_4","teammates_player_1","teammates_player_2","teammates_player_3","teammates_player_4"],"feature_types":["int","int","float","float","float","int","float","float","float","float","int","int","int","int","int","int","int","int","int","int","int","int","int","int","int","int","int","int","int","int","int","int","int","int","int","int","int","int","int","int","int","int","int","int","int","int","int","int","int","int","int","int","int","int","int","int","int","int","int","int","int","int","int","int","int","int","int","int","int","int","int","int","float","float","float","float","float","float","float","float","float","int","int","int","int"],"gradient_booster":{"model":{"gbtree_model_param":{"num_parallel_tree":"1","num_trees":"388"},"iteration_indptr":[0,1,2,3,4,5,6,7,8,9,10,11,12,13,14,15,16,17,18,19,20,21,22,23,24,25,26,27,28,29,30,31,32,33,34,35,36,37,38,39,40,41,42,43,44,45,46,47,48,49,50,51,52,53,54,55,56,57,58,59,60,61,62,63,64,65,66,67,68,69,70,71,72,73,74,75,76,77,78,79,80,81,82,83,84,85,86,87,88,89,90,91,92,93,94,95,96,97,98,99,100,101,102,103,104,105,106,107,108,109,110,111,112,113,114,115,116,117,118,119,120,121,122,123,124,125,126,127,128,129,130,131,132,133,134,135,136,137,138,139,140,141,142,143,144,145,146,147,148,149,150,151,152,153,154,155,156,157,158,159,160,161,162,163,164,165,166,167,168,169,170,171,172,173,174,175,176,177,178,179,180,181,182,183,184,185,186,187,188,189,190,191,192,193,194,195,196,197,198,199,200,201,202,203,204,205,206,207,208,209,210,211,212,213,214,215,216,217,218,219,220,221,222,223,224,225,226,227,228,229,230,231,232,233,234,235,236,237,238,239,240,241,242,243,244,245,246,247,248,249,250,251,252,253,254,255,256,257,258,259,260,261,262,263,264,265,266,267,268,269,270,271,272,273,274,275,276,277,278,279,280,281,282,283,284,285,286,287,288,289,290,291,292,293,294,295,296,297,298,299,300,301,302,303,304,305,306,307,308,309,310,311,312,313,314,315,316,317,318,319,320,321,322,323,324,325,326,327,328,329,330,331,332,333,334,335,336,337,338,339,340,341,342,343,344,345,346,347,348,349,350,351,352,353,354,355,356,357,358,359,360,361,362,363,364,365,366,367,368,369,370,371,372,373,374,375,376,377,378,379,380,381,382,383,384,385,386,387,388],"tree_info":[0,0,0,0,0,0,0,0,0,0,0,0,0,0,0,0,0,0,0,0,0,0,0,0,0,0,0,0,0,0,0,0,0,0,0,0,0,0,0,0,0,0,0,0,0,0,0,0,0,0,0,0,0,0,0,0,0,0,0,0,0,0,0,0,0,0,0,0,0,0,0,0,0,0,0,0,0,0,0,0,0,0,0,0,0,0,0,0,0,0,0,0,0,0,0,0,0,0,0,0,0,0,0,0,0,0,0,0,0,0,0,0,0,0,0,0,0,0,0,0,0,0,0,0,0,0,0,0,0,0,0,0,0,0,0,0,0,0,0,0,0,0,0,0,0,0,0,0,0,0,0,0,0,0,0,0,0,0,0,0,0,0,0,0,0,0,0,0,0,0,0,0,0,0,0,0,0,0,0,0,0,0,0,0,0,0,0,0,0,0,0,0,0,0,0,0,0,0,0,0,0,0,0,0,0,0,0,0,0,0,0,0,0,0,0,0,0,0,0,0,0,0,0,0,0,0,0,0,0,0,0,0,0,0,0,0,0,0,0,0,0,0,0,0,0,0,0,0,0,0,0,0,0,0,0,0,0,0,0,0,0,0,0,0,0,0,0,0,0,0,0,0,0,0,0,0,0,0,0,0,0,0,0,0,0,0,0,0,0,0,0,0,0,0,0,0,0,0,0,0,0,0,0,0,0,0,0,0,0,0,0,0,0,0,0,0,0,0,0,0,0,0,0,0,0,0,0,0,0,0,0,0,0,0,0,0,0,0,0,0,0,0,0,0,0,0,0,0,0,0,0,0,0,0,0,0,0,0,0,0,0,0,0,0,0,0,0,0,0,0,0,0,0,0,0,0,0,0,0,0,0,0,0,0,0,0,0,0],"trees":[{"base_weights":[-0E0,9.158621E-1,-4.3828383E-1,9.841828E-1,6.624204E-1,-2.3041475E-1,-9.6055686E-1,9.946714E-1,-0E0,8.359375E-1,-1E-1,1.0772358E-1,-5.10101E-1,-5.714286E-1,-9.781022E-1,8.17708E-2,4E-1,6.143801E-2,-6.143801E-2,-5.4611564E-2,8.6507934E-1,-8E-1,5.625E-1,-2.7310926E-1,4.627451E-1,-4.195804E-2,-6.5707964E-1,2.857143E-1,-7.645619E-2,-8.050845E-2,-4E-1,-4.0958673E-2,6.143801E-2,-4.0958673E-2,8.8E-1,-7.606611E-2,4.0958673E-2,7.50909E-2,-4E-1,1.3333334E-1,-5.895522E-1,7.969925E-1,9.756097E-2,1.5841584E-1,-5.116279E-1,-4.4444445E-1,-8.068182E-1,6.553388E-2,-5.4611564E-2,4.0958673E-2,-6.143801E-2,8.951613E-1,-4.0958673E-2,-6.143801E-2,4.0958673E-2,4.7887325E-1,-5.714286E-1,5E-1,-6.72E-1,8.5271317E-1,-6.553388E-2,6.557377E-1,-4.4444445E-1,7.916667E-1,-3.846154E-2,-1.6E-1,-7.760591E-2,-2.3770492E-1,-8.088235E-1,-8.136882E-1,4.0958673E-2,-4.0958673E-2,7.4591406E-2,-7.1232477E-3,6.0184173E-2,6.143801E-2,-5.8878094E-2,7.167768E-2,-5.4611564E-2,-6.251587E-2,2.0479336E-2,-5.4611564E-2,7.2242066E-2,-6.553388E-2,6.323444E-2,7.1232477E-3,-5.9939522E-2,7.782148E-2,-0E0,1.8021816E-2,-3.9546303E-2,-2.606461E-2,6.143801E-2,-5.0970793E-2,-1.0502224E-3,-6.846823E-2,4.0958673E-2,-7.3074E-2,-5.3060096E-2],"categories":[],"categories_nodes":[],"categories_segments":[],"categories_sizes":[],"default_left":[0,0,0,0,0,0,0,0,0,0,0,0,0,0,0,0,0,0,0,0,0,0,0,0,0,0,0,0,0,0,0,0,0,0,0,0,0,0,0,0,0,0,0,0,0,0,0,0,0,0,0,0,0,0,0,0,0,0,0,0,0,0,0,0,0,0,0,0,0,0,0,0,0,0,0,0,0,0,0,0,0,0,0,0,0,0,0,0,0,0,0,0,0,0,0,0,0,0,0],"id":0,"left_children":[1,3,5,7,9,11,13,15,17,19,21,23,25,27,29,-1,31,-1,-1,-1,33,35,37,39,41,43,45,47,-1,-1,49,-1,-1,-1,51,-1,-1,-1,53,55,57,59,61,63,65,67,69,-1,-1,-1,-1,71,-1,-1,-1,73,75,77,79,81,-1,83,85,87,89,91,-1,93,95,97,-1,-1,-1,-1,-1,-1,-1,-1,-1,-1,-1,-1,-1,-1,-1,-1,-1,-1,-1,-1,-1,-1,-1,-1,-1,-1,-1,-1,-1],"loss_changes":[8.9915283E2,1.1901672E1,1.6425375E2,5.873657E0,2.08536E1,1.02666275E2,2.3836975E0,7.857666E-1,4.5E0,6.181671E0,1.43625E1,6.664667E1,4.0843796E1,6.780952E0,7.232971E-1,0E0,1.95E0,0E0,0E0,0E0,3.0063553E0,2.971428E0,5.820833E0,3.0689192E1,3.1048012E1,1.3538719E1,1.4032959E1,3.9619048E0,0E0,0E0,1.95E0,0E0,0E0,0E0,3.0628967E0,0E0,0E0,0E0,1.95E0,2.5843596E1,1.2373375E1,1.2517242E1,3.750322E1,1.2622398E1,6.436817E0,1.4045406E1,2.7769928E0,0E0,0E0,0E0,0E0,3.120842E0,0E0,0E0,0E0,1.0341204E1,7.3526783E0,4.9583335E0,1.0696735E1,6.3065414E0,0E0,1.0935406E1,9.680689E0,3.0083323E0,9.063236E0,3.8372731E0,0E0,1.0541601E1,2.820675E0,2.8423157E0,0E0,0E0,0E0,0E0,0E0,0E0,0E0,0E0,0E0,0E0,0E0,0E0,0E0,0E0,0E0,0E0,0E0,0E0,0E0,0E0,0E0,0E0,0E0,0E0,0E0,0E0,0E0,0E0,0E0],"parents":[2147483647,0,0,1,1,2,2,3,3,4,4,5,5,6,6,7,7,8,8,9,9,10,10,11,11,12,12,13,13,14,14,16,16,20,20,21,21,22,22,23,23,24,24,25,25,26,26,27,27,30,30,34,34,38,38,39,39,40,40,41,41,42,42,43,43,44,44,45,45,46,46,51,51,55,55,56,56,57,57,58,58,59,59,61,61,62,62,63,63,64,64,65,65,67,67,68,68,69,69],"right_children":[2,4,6,8,10,12,14,16,18,20,22,24,26,28,30,-1,32,-1,-1,-1,34,36,38,40,42,44,46,48,-1,-1,50,-1,-1,-1,52,-1,-1,-1,54,56,58,60,62,64,66,68,70,-1,-1,-1,-1,72,-1,-1,-1,74,76,78,80,82,-1,84,86,88,90,92,-1,94,96,98,-1,-1,-1,-1,-1,-1,-1,-1,-1,-1,-1,-1,-1,-1,-1,-1,-1,-1,-1,-1,-1,-1,-1,-1,-1,-1,-1,-1,-1],"split_conditions":[1.0040419E1,9.200543E0,1.9416489E1,1.186E2,1.6219466E2,1.26895424E2,3.61E1,1.7963805E2,5.905929E0,7.0710677E-1,2.0099752E0,2.2E0,1E0,2.3960384E1,1E0,7.1370522E-3,-1.3767939E0,6.764354E-3,-2.388951E-3,-7.1778876E-4,1.101E2,1E0,4.48E1,1.1868024E1,1.3061394E1,9.2800865E0,1.2256019E1,4.420056E0,-3.5171513E-3,-3.3368564E-3,6.27275E-1,-3.579132E-4,1.4211976E-2,-2.3922046E-4,1.174E2,-6.2293484E-4,3.68984E-4,7.1827444E-4,1.89772E0,1.2297772E2,1E0,1.149E2,1E0,2.299413E1,1.3150536E2,1.6169586E2,3.341417E0,7.202394E-4,-2.8821882E-3,2.7096632E-3,-3.2426652E-3,2.2E0,-3.1570247E-3,-4.2033367E-4,2.4465753E-3,2.6019223E0,1.0245975E1,5.115662E0,1.5231546E0,2.4020824E0,-2.8484878E-3,2.5E1,1.363436E0,1.7720045E1,6.5E1,1.2592458E1,-1.6120296E-3,8E-1,1.7851213E2,2.828427E0,6.9177235E-3,-1.354842E-4,2.9609432E-3,-2.8993049E-5,1.7119464E-3,6.1225984E-4,-1.022303E-3,3.0604892E-3,-5.94844E-4,-1.8699776E-3,5.402095E-4,-1.215594E-3,3.2949634E-3,-3.3451028E-3,3.425874E-3,2.2460149E-4,-1.3032515E-3,1.999948E-3,-6.334635E-4,1.0060362E-3,-1.2353106E-3,-6.4450485E-4,7.498201E-4,-6.763012E-4,-3.3043364E-6,-1.0863814E-3,2.8803314E-3,-2.5207875E-3,-2.2016496E-3],"split_indices":[72,72,72,6,77,77,8,79,72,74,74,74,34,72,47,0,3,0,0,0,6,31,7,72,72,76,72,2,0,0,2,0,0,0,6,0,0,0,2,78,42,6,34,4,78,77,2,0,0,0,0,9,0,0,0,76,72,76,73,75,0,7,2,72,9,76,0,73,79,74,0,0,0,0,0,0,0,0,0,0,0,0,0,0,0,0,0,0,0,0,0,0,0,0,0,0,0,0,0],"split_type":[0,0,0,0,0,0,0,0,0,0,0,0,0,0,0,0,0,0,0,0,0,0,0,0,0,0,0,0,0,0,0,0,0,0,0,0,0,0,0,0,0,0,0,0,0,0,0,0,0,0,0,0,0,0,0,0,0,0,0,0,0,0,0,0,0,0,0,0,0,0,0,0,0,0,0,0,0,0,0,0,0,0,0,0,0,0,0,0,0,0,0,0,0,0,0,0,0,0,0],"sum_hessian":[2.238E3,7.24E2,1.514E3,5.68E2,1.56E2,1.084E3,4.3E2,5.62E2,6E0,1.27E2,2.9E1,4.91E2,5.93E2,2E1,4.1E2,5.58E2,4E0,3E0,3E0,2E0,1.25E2,1.4E1,1.5E1,2.37E2,2.54E2,1.42E2,4.51E2,6E0,1.4E1,4.06E2,4E0,1E0,3E0,1E0,1.24E2,1.3E1,1E0,1.1E1,4E0,1.04E2,1.33E2,1.32E2,1.22E2,1E2,4.2E1,1.88E2,2.63E2,4E0,2E0,1E0,3E0,1.23E2,1E0,3E0,1E0,7E1,3.4E1,9E0,1.24E2,1.28E2,4E0,6E1,6.2E1,2.3E1,7.7E1,2.4E1,1.8E1,1.21E2,6.7E1,2.62E2,1E0,1E0,1.22E2,2.2E1,4.8E1,3E0,3.1E1,7E0,2E0,1.13E2,1.1E1,2E0,1.26E2,4E0,5.6E1,2.2E1,4E1,1.9E1,4E0,4.9E1,2.8E1,2.1E1,3E0,4.4E1,7.7E1,6.6E1,1E0,1.75E2,8.7E1],"tree_param":{"num_deleted":"0","num_feature":"85","num_nodes":"99","size_leaf_vector":"1"}},{"base_weights":[-1.0719071E-2,8.760446E-1,-4.2904073E-1,9.787234E-1,6.089109E-1,-2.2972973E-1,-9.636804E-1,9.8255813E-1,-4.0958673E-2,7.78481E-1,-0E0,1.010101E-1,-4.9512988E-1,-9.8191214E-1,-6.666667E-1,9.8638135E-1,-0E0,-5.714286E-1,8.355263E-1,-7.5E-1,5.769231E-1,-1.802721E-1,5.09901E-1,-1.2903225E-1,-6.168831E-1,-8.084793E-2,-4E-1,-0E0,-7.760591E-2,4E-1,9.9019605E-1,-4.0958673E-2,4.0958673E-2,4.0958673E-2,-6.8264455E-2,8.811189E-1,1E-1,5.4611564E-2,-7.736638E-2,8.5714287E-1,-5E-1,8.092485E-2,-5.491803E-1,8.5148513E-1,1.6666667E-1,9.52381E-2,-5.882353E-1,-3.140496E-1,-7.222222E-1,4.0958673E-2,-6.143801E-2,-6.553388E-2,6.553388E-2,6.143801E-2,-4.0958673E-2,4E-1,8.1431665E-2,9.435484E-1,4.5E-1,-6.553388E-2,6.8264455E-2,7.782148E-2,-4.0958673E-2,-6.553388E-2,4.0958673E-2,-4.090909E-1,3.7962964E-1,4.6153846E-1,-6.636364E-1,9.2783505E-1,-6.553388E-2,5.5E-1,-3.7209302E-1,6.5384614E-1,-8.75E-2,-2.5E-1,-7.850412E-2,-7.2289154E-2,-8.2051283E-1,-4.7297296E-1,-7.881041E-1,-4.0958673E-2,6.143801E-2,7.858737E-2,-4.0958673E-2,-5.4611564E-2,5.00606E-2,-9.752065E-3,-7.2087266E-2,4.6673834E-2,-2.849299E-2,7.372561E-2,-6.143801E-2,-6.728925E-2,-1.2135903E-2,-5.4611564E-2,7.933048E-2,-6.553388E-2,5.412396E-2,1.0922314E-2,-5.0845247E-2,7.782148E-2,-2.3404958E-2,1.7429223E-2,-4.0958673E-2,-3.900826E-2,3.0719005E-2,-2.5868634E-2,3.640771E-2,-7.113875E-2,4.0958673E-2,-5.2760325E-2,1.5359502E-2,-6.559547E-2,2.0479336E-2],"categories":[],"categories_nodes":[],"categories_segments":[],"categories_sizes":[],"default_left":[0,0,0,0,0,0,0,0,0,0,0,0,0,0,0,0,0,0,0,0,0,0,0,0,0,0,0,0,0,0,0,0,0,0,0,0,0,0,0,0,0,0,0,0,0,0,0,0,0,0,0,0,0,0,0,0,0,0,0,0,0,0,0,0,0,0,0,0,0,0,0,0,0,0,0,0,0,0,0,0,0,0,0,0,0,0,0,0,0,0,0,0,0,0,0,0,0,0,0,0,0,0,0,0,0,0,0,0,0,0,0,0,0,0,0],"id":1,"left_children":[1,3,5,7,9,11,13,15,-1,17,19,21,23,25,27,29,31,33,35,37,39,41,43,45,47,-1,49,51,-1,53,55,-1,-1,-1,-1,57,59,-1,-1,61,63,65,67,69,71,73,75,77,79,-1,-1,-1,-1,-1,-1,81,-1,83,85,-1,-1,-1,-1,-1,-1,87,89,91,93,95,-1,97,99,101,103,105,-1,107,109,111,113,-1,-1,-1,-1,-1,-1,-1,-1,-1,-1,-1,-1,-1,-1,-1,-1,-1,-1,-1,-1,-1,-1,-1,-1,-1,-1,-1,-1,-1,-1,-1,-1,-1,-1],"loss_changes":[8.309384E2,1.9098022E1,1.6196228E2,3.422943E0,2.0857124E1,9.748404E1,1.5818176E0,1.9383545E0,0E0,1.2644386E1,1.9903847E1,5.7023716E1,2.7377716E1,7.3864746E-1,5.0526314E0,7.536621E-1,1E0,2.3809521E0,5.00914E0,6.1388893E0,8.274726E0,2.8373611E1,2.3541256E1,1.6018795E1,1.4511078E1,0E0,1.95E0,6.4E0,0E0,1.95E0,7.687683E-1,0E0,0E0,0E0,0E0,3.4241867E0,7.266667E0,0E0,0E0,3.1214275E0,2.2E0,2.5477322E1,1.4419601E1,1.3477432E1,2.1270155E1,1.0775504E1,6.1446075E0,1.4756261E1,5.243225E0,0E0,0E0,0E0,0E0,0E0,0E0,1.95E0,0E0,3.3080902E0,4.005555E0,0E0,0E0,0E0,0E0,0E0,0E0,8.909783E0,1.5136397E1,7.5807695E0,8.82571E0,6.9229126E0,0E0,9.496429E0,5.485592E0,7.5060425E0,1.001516E1,4.1369047E0,0E0,1.0583809E1,2.9014835E0,8.483023E0,3.7320862E0,0E0,0E0,0E0,0E0,0E0,0E0,0E0,0E0,0E0,0E0,0E0,0E0,0E0,0E0,0E0,0E0,0E0,0E0,0E0,0E0,0E0,0E0,0E0,0E0,0E0,0E0,0E0,0E0,0E0,0E0,0E0,0E0,0E0,0E0],"parents":[2147483647,0,0,1,1,2,2,3,3,4,4,5,5,6,6,7,7,9,9,10,10,11,11,12,12,13,13,14,14,15,15,16,16,17,17,18,18,19,19,20,20,21,21,22,22,23,23,24,24,26,26,27,27,29,29,30,30,35,35,36,36,39,39,40,40,41,41,42,42,43,43,44,44,45,45,46,46,47,47,48,48,55,55,57,57,58,58,65,65,66,66,67,67,68,68,69,69,71,71,72,72,73,73,74,74,75,75,77,77,78,78,79,79,80,80],"right_children":[2,4,6,8,10,12,14,16,-1,18,20,22,24,26,28,30,32,34,36,38,40,42,44,46,48,-1,50,52,-1,54,56,-1,-1,-1,-1,58,60,-1,-1,62,64,66,68,70,72,74,76,78,80,-1,-1,-1,-1,-1,-1,82,-1,84,86,-1,-1,-1,-1,-1,-1,88,90,92,94,96,-1,98,100,102,104,106,-1,108,110,112,114,-1,-1,-1,-1,-1,-1,-1,-1,-1,-1,-1,-1,-1,-1,-1,-1,-1,-1,-1,-1,-1,-1,-1,-1,-1,-1,-1,-1,-1,-1,-1,-1,-1,-1],"split_conditions":[1.0012992E1,8.931965E0,1.9924858E1,8.376157E0,1.5925095E2,1.2582127E2,6.1294373E1,5.920304E1,-1.6133786E-4,1.8027756E0,1.8973666E0,2.6925824E0,1E0,1E0,3.83E1,7.70067E-1,2.254E0,2E0,1E0,6.742297E1,4.48E1,1.2826535E1,1.3061394E1,9.2800865E0,1.1524756E1,-3.091328E-3,6.27275E-1,9.72E1,-2.9561804E-3,1.17E2,1.113E2,-3.895467E-4,2.7661663E-2,4.635158E-3,-1.7051633E-4,1.5160698E2,1.497364E0,1.239875E-3,-5.0812686E-4,1E0,4.9E1,1.3928388E0,1E0,1.149E2,1E0,2.299413E1,1.3150536E2,1.6436751E2,1.4059933E2,2.4876946E-3,-2.9770348E-3,-3.5375182E-3,6.6123926E-4,9.790381E-3,-2.1932544E-3,1.234823E0,7.3310407E-3,1E0,8.24E1,-2.2402061E-4,2.892441E-3,1.0984897E-3,-5.719056E-4,-4.91203E-4,2.2461582E-3,4.1E1,1.407022E2,1.6643316E1,4.35E1,5.5E0,-2.6151473E-3,2.5E1,1.363436E0,7.034393E-1,1.4229305E2,6.2801275E0,-1.3514354E-3,2.6305892E0,1E0,1E0,3.152312E0,-5.1086786E-4,2.7627754E-3,3.1655906E-3,-5.220961E-4,-1.5593581E-3,1.1154051E-3,-1.2785933E-4,-9.686808E-4,1.4871014E-3,-2.8563145E-4,2.469497E-3,-5.606709E-4,-2.1737318E-3,-9.769525E-4,-1.1360277E-3,3.5298115E-3,-3.071081E-3,3.041915E-3,2.0620273E-4,-1.438345E-3,1.8361178E-3,-4.5695633E-4,9.6881395E-4,-4.8180568E-4,-1.1962996E-3,2.1529868E-3,-3.867082E-4,4.2198188E-4,-8.336061E-4,6.694934E-4,-1.4557249E-3,7.5299686E-5,-2.0637317E-3,3.02109E-3],"split_indices":[72,72,72,75,77,77,4,4,0,76,74,74,34,47,9,2,2,0,68,78,7,72,72,76,72,0,2,6,0,6,6,0,0,0,0,78,2,0,0,71,7,74,34,6,34,4,78,77,77,0,0,0,0,0,0,2,0,29,8,0,0,0,0,0,0,7,78,72,7,9,0,7,2,3,79,74,0,74,55,84,2,0,0,0,0,0,0,0,0,0,0,0,0,0,0,0,0,0,0,0,0,0,0,0,0,0,0,0,0,0,0,0,0,0,0],"split_type":[0,0,0,0,0,0,0,0,0,0,0,0,0,0,0,0,0,0,0,0,0,0,0,0,0,0,0,0,0,0,0,0,0,0,0,0,0,0,0,0,0,0,0,0,0,0,0,0,0,0,0,0,0,0,0,0,0,0,0,0,0,0,0,0,0,0,0,0,0,0,0,0,0,0,0,0,0,0,0,0,0,0,0,0,0,0,0,0,0,0,0,0,0,0,0,0,0,0,0,0,0,0,0,0,0,0,0,0,0,0,0,0,0,0,0],"sum_hessian":[2.238E3,7.17E2,1.521E3,5.16E2,2.01E2,1.109E3,4.12E2,5.15E2,1E0,1.57E2,4.4E1,4.94E2,6.15E2,3.86E2,2.6E1,5.13E2,2E0,6E0,1.51E2,1.9E1,2.5E1,2.93E2,2.01E2,1.54E2,4.61E2,3.82E2,4E0,8E0,1.8E1,4E0,5.09E2,1E0,1E0,1E0,5E0,1.42E2,9E0,2E0,1.7E1,2E1,5E0,1.72E2,1.21E2,1E2,1.01E2,1.04E2,5E1,1.2E2,3.41E2,1E0,3E0,4E0,4E0,3E0,1E0,4E0,5.05E2,1.23E2,1.9E1,4E0,5E0,1.9E1,1E0,4E0,1E0,6.5E1,1.07E2,1.2E1,1.09E2,9.6E1,4E0,5.9E1,4.2E1,2.5E1,7.9E1,2.7E1,2.3E1,8.2E1,3.8E1,7.3E1,2.68E2,1E0,3E0,1.22E2,1E0,2E0,1.7E1,4.1E1,2.4E1,8.5E1,2.2E1,9E0,3E0,8.3E1,2.6E1,2E0,9.4E1,4E0,5.5E1,1.4E1,2.8E1,1.9E1,6E0,4.6E1,3.3E1,2E1,7E0,5.6E1,2.6E1,3.7E1,1E0,5.8E1,1.5E1,2.65E2,3E0],"tree_param":{"num_deleted":"0","num_feature":"85","num_nodes":"115","size_leaf_vector":"1"}},{"base_weights":[-2.7690934E-2,6.446541E-1,-5.264386E-1,9.6503496E-1,3.8212928E-1,-3.529412E-1,-9.8579544E-1,3E-1,9.785714E-1,-3.2520324E-1,5.9653467E-1,-1.2678936E-1,-5.995526E-1,-8.167852E-2,-5E-1,-4E-1,6.8264455E-2,9.8329353E-1,-4.0958673E-2,-1.3414635E-1,-6.904762E-1,7.469512E-1,-5.1948052E-2,-3.9114392E-1,2.0091324E-1,-3.006536E-1,-7.525424E-1,-7.167768E-2,5.4611564E-2,4.0958673E-2,-6.143801E-2,2.5E-1,8.0932766E-2,2.1153846E-1,-7.096774E-1,5.4611564E-2,-7.75E-1,8.566176E-1,2.1052632E-1,5.6E-1,-3.3962265E-1,-6.185567E-2,-5.714286E-1,6.0714287E-1,-5.147059E-2,1.1363637E-2,-7.121212E-1,-7.6369864E-1,2.5E-1,5.4611564E-2,-4.0958673E-2,3.4042552E-1,-6.8264455E-2,-8.2758623E-1,5.4611564E-2,2.5E-1,-8.648649E-1,9.170306E-1,5.2272725E-1,-4.5833334E-1,6.764706E-1,8.4210527E-1,-2.857143E-1,-7.096774E-1,1.7391305E-1,-6.0465115E-1,3.6363637E-1,-1.5686275E-1,-7.36E-1,2.3684211E-1,8.9361703E-1,-2.4509804E-1,5.1428574E-1,1.6901408E-1,-6.111111E-1,4E-1,-7.903226E-1,-8.2666665E-1,-5.441176E-1,-4.0958673E-2,5.4611564E-2,3.53734E-2,-6.143801E-2,4.0958673E-2,-7.314049E-2,5.4611564E-2,-4.0958673E-2,-7.50909E-2,4.0958673E-2,-0E0,7.645619E-2,-3.640771E-2,6.143801E-2,-6.8983026E-2,6.8264455E-2,6.8704866E-2,-6.143801E-2,-4.0958673E-2,7.736638E-2,-6.553388E-2,5.4611564E-2,-7.760591E-2,-2.5205338E-2,5.4611564E-2,-5.4611564E-2,-5.8812454E-2,3.276694E-2,-1.2287603E-2,5.233608E-2,-3.0719005E-2,4.778512E-2,-6.363827E-2,3.276694E-2,6.3013345E-2,-3.1506673E-3,8.001229E-2,-0E0,1.791942E-2,-3.692049E-2,-4.0958673E-2,5.7342142E-2,-2.8356005E-2,3.739705E-2,3.276694E-2,-7.606611E-2,6.143801E-2,-4.0958673E-2,4.0958673E-2,-6.714536E-2,4.0958673E-2,-6.838635E-2,4.468219E-2,-6.0731824E-2],"categories":[],"categories_nodes":[],"categories_segments":[],"categories_sizes":[],"default_left":[0,0,0,0,0,0,0,0,0,0,0,0,0,0,0,0,0,0,0,0,0,0,0,0,0,0,0,0,0,0,0,0,0,0,0,0,0,0,0,0,0,0,0,0,0,0,0,0,0,0,0,0,0,0,0,0,0,0,0,0,0,0,0,0,0,0,0,0,0,0,0,0,0,0,0,0,0,0,0,0,0,0,0,0,0,0,0,0,0,0,0,0,0,0,0,0,0,0,0,0,0,0,0,0,0,0,0,0,0,0,0,0,0,0,0,0,0,0,0,0,0,0,0,0,0,0,0,0,0,0,0,0,0],"id":2,"left_children":[1,3,5,7,9,11,13,15,17,19,21,23,25,-1,27,29,-1,31,-1,33,35,37,39,41,43,45,47,-1,-1,-1,-1,49,-1,51,53,-1,55,57,59,61,63,65,67,69,71,73,75,77,79,-1,-1,81,-1,83,-1,85,87,89,91,93,95,97,99,101,103,105,107,109,111,113,115,117,119,121,123,125,127,129,131,-1,-1,-1,-1,-1,-1,-1,-1,-1,-1,-1,-1,-1,-1,-1,-1,-1,-1,-1,-1,-1,-1,-1,-1,-1,-1,-1,-1,-1,-1,-1,-1,-1,-1,-1,-1,-1,-1,-1,-1,-1,-1,-1,-1,-1,-1,-1,-1,-1,-1,-1,-1,-1,-1],"loss_changes":[7.5114435E2,7.987021E1,1.0214267E2,3.56839E0,7.9965E1,5.2070442E1,1.4319153E0,4.0666666E0,3.4240723E0,8.49129E0,3.9446E1,4.24405E1,2.0214386E1,0E0,4.9583335E0,1.95E0,0E0,1.1931458E0,0E0,1.6464218E1,5.334524E0,1.9115189E1,1.3745415E1,1.6052738E1,2.2484398E1,1.9650993E1,3.490387E0,0E0,0E0,0E0,0E0,1.5833334E0,0E0,7.2865515E0,5.5824986E0,0E0,3.9006767E0,5.0072174E0,1.8074175E1,6.2051125E0,1.0195349E1,2.2622524E1,1.1824047E1,8.699209E0,1.50243E1,8.739027E0,6.0561104E0,3.587555E0,1.5833334E0,0E0,0E0,5.0077367E0,0E0,2.9593601E0,0E0,1.5833334E0,3.0743237E0,3.423584E0,1.0005052E1,1.2598684E1,8.497628E0,3.081871E0,3.9619048E0,2.670498E0,9.971014E0,5.181633E0,7.871717E0,8.453432E0,6.1128006E0,5.59919E0,3.4913406E0,9.826334E0,6.9428577E0,1.0674172E1,6.149206E0,1.95E0,2.757801E0,2.8516083E0,1.5019686E1,0E0,0E0,0E0,0E0,0E0,0E0,0E0,0E0,0E0,0E0,0E0,0E0,0E0,0E0,0E0,0E0,0E0,0E0,0E0,0E0,0E0,0E0,0E0,0E0,0E0,0E0,0E0,0E0,0E0,0E0,0E0,0E0,0E0,0E0,0E0,0E0,0E0,0E0,0E0,0E0,0E0,0E0,0E0,0E0,0E0,0E0,0E0,0E0,0E0,0E0,0E0,0E0,0E0,0E0],"parents":[2147483647,0,0,1,1,2,2,3,3,4,4,5,5,6,6,7,7,8,8,9,9,10,10,11,11,12,12,14,14,15,15,17,17,19,19,20,20,21,21,22,22,23,23,24,24,25,25,26,26,31,31,33,33,34,34,36,36,37,37,38,38,39,39,40,40,41,41,42,42,43,43,44,44,45,45,46,46,47,47,48,48,51,51,53,53,55,55,56,56,57,57,58,58,59,59,60,60,61,61,62,62,63,63,64,64,65,65,66,66,67,67,68,68,69,69,70,70,71,71,72,72,73,73,74,74,75,75,76,76,77,77,78,78],"right_children":[2,4,6,8,10,12,14,16,18,20,22,24,26,-1,28,30,-1,32,-1,34,36,38,40,42,44,46,48,-1,-1,-1,-1,50,-1,52,54,-1,56,58,60,62,64,66,68,70,72,74,76,78,80,-1,-1,82,-1,84,-1,86,88,90,92,94,96,98,100,102,104,106,108,110,112,114,116,118,120,122,124,126,128,130,132,-1,-1,-1,-1,-1,-1,-1,-1,-1,-1,-1,-1,-1,-1,-1,-1,-1,-1,-1,-1,-1,-1,-1,-1,-1,-1,-1,-1,-1,-1,-1,-1,-1,-1,-1,-1,-1,-1,-1,-1,-1,-1,-1,-1,-1,-1,-1,-1,-1,-1,-1,-1,-1,-1],"split_conditions":[1.1164677E1,8.401191E0,2.2435017E1,3.35E1,1.3928388E0,1.4059933E2,1E0,2E0,8.376157E0,1.5250278E2,1.5987187E2,2.6925824E0,1E0,-2.8807025E-3,1E0,-1.0878633E0,2.0670486E-3,7.0710677E-1,-1.4812143E-4,1.2297772E2,1.5231546E0,1.3962025E2,6.894835E1,7.93933E1,1.3461427E1,1.8094198E1,1E0,-2.9657187E-3,6.4738793E-4,6.0458004E-4,-5.1989587E-4,1.749291E0,7.7816374E-3,1.4691794E2,5.59017E0,1.0334145E-3,8.7E0,1.438691E2,2.5E0,3.608102E1,1.17047E0,9.486833E-1,1.2310159E1,1.5811388E0,8.160882E0,5.12E1,5E1,1.4142135E0,-5.3527373E-1,1.5213777E-3,-3.5015834E-4,4.578231E1,-4.5927404E-4,1.00901E0,5.202053E-4,4.4483818E1,1E0,1.9945927E1,1.9723083E0,1E0,1.174E2,-1.8444556E0,3.9042667E1,3.4132097E0,1.0012992E1,1E0,2.34E1,3.6619668E0,1E0,7.961936E1,1E0,2.5890924E1,2.63E1,4.464303E0,1.103E2,3.152312E0,3.3286633E0,3.3E0,1.4317821E0,-2.651371E-3,1.6966923E-3,6.571253E-4,-2.8023537E-4,3.772003E-4,-8.428398E-4,4.0097297E-3,-9.7310875E-4,-5.200948E-4,2.371908E-4,2.4667713E-3,3.3870726E-3,-4.255923E-4,1.0930597E-3,-3.545869E-4,9.722726E-4,2.7113566E-3,-3.1009896E-3,-1.8202046E-4,6.08997E-4,-4.171018E-4,1.1837287E-3,-4.7986238E-4,-3.5164968E-4,4.4810376E-4,-9.661886E-4,-1.5328564E-3,9.944955E-4,-4.8245417E-4,1.1599667E-3,-7.422742E-4,4.5854898E-4,-1.7617553E-3,3.4346117E-4,1.3458368E-3,-4.5744366E-7,4.4122897E-3,2.1401055E-4,1.8739932E-4,-7.988187E-4,-2.9129826E-3,3.7548607E-3,-3.3733525E-4,9.3464105E-4,3.34086E-4,-1.6717116E-3,1.7275136E-4,-2.7302766E-4,1.3125188E-3,-1.1461494E-3,4.145575E-4,-1.9534584E-3,3.6765562E-4,-1.4639596E-3],"split_indices":[72,72,72,7,74,77,53,0,75,77,77,74,34,0,10,3,0,74,0,78,76,78,78,77,72,72,31,0,0,0,0,2,0,79,76,0,9,77,74,4,73,73,72,73,75,7,8,73,3,0,0,4,0,2,0,4,31,4,74,27,6,3,4,75,72,13,9,75,17,79,59,4,7,75,6,2,4,9,73,0,0,0,0,0,0,0,0,0,0,0,0,0,0,0,0,0,0,0,0,0,0,0,0,0,0,0,0,0,0,0,0,0,0,0,0,0,0,0,0,0,0,0,0,0,0,0,0,0,0,0,0,0,0],"split_type":[0,0,0,0,0,0,0,0,0,0,0,0,0,0,0,0,0,0,0,0,0,0,0,0,0,0,0,0,0,0,0,0,0,0,0,0,0,0,0,0,0,0,0,0,0,0,0,0,0,0,0,0,0,0,0,0,0,0,0,0,0,0,0,0,0,0,0,0,0,0,0,0,0,0,0,0,0,0,0,0,0,0,0,0,0,0,0,0,0,0,0,0,0,0,0,0,0,0,0,0,0,0,0,0,0,0,0,0,0,0,0,0,0,0,0,0,0,0,0,0,0,0,0,0,0,0,0,0,0,0,0,0,0],"sum_hessian":[2.238E3,9.53E2,1.285E3,4.28E2,5.25E2,9.34E2,3.51E2,9E0,4.19E2,1.22E2,4.03E2,4.88E2,4.46E2,3.42E2,9E0,4E0,5E0,4.18E2,1E0,8.1E1,4.1E1,3.27E2,7.6E1,2.7E2,2.18E2,1.52E2,2.94E2,7E0,2E0,1E0,3E0,3E0,4.15E2,5.1E1,3E1,2E0,3.9E1,2.71E2,5.6E1,2.4E1,5.2E1,9.6E1,1.74E2,8.3E1,1.35E2,8.7E1,6.5E1,2.91E2,3E0,2E0,1E0,4.6E1,5E0,2.8E1,2E0,3E0,3.6E1,2.28E2,4.3E1,2.3E1,3.3E1,1.8E1,6E0,3E1,2.2E1,4.2E1,5.4E1,5E1,1.24E2,3.7E1,4.6E1,1.01E2,3.4E1,7E1,1.7E1,4E0,6.1E1,2.24E2,6.7E1,1E0,2E0,4.3E1,3E0,1E0,2.7E1,2E0,1E0,3.5E1,1E0,4E0,2.24E2,8E0,3.5E1,1.8E1,5E0,3E1,3E0,1E0,1.7E1,4E0,2E0,1.8E1,1.2E1,1.4E1,8E0,3.8E1,4E0,1.9E1,3.5E1,3.9E1,1.1E1,1.2E2,4E0,1.2E1,2.5E1,4.2E1,4E0,3.1E1,7E1,5E0,2.9E1,2.5E1,4.5E1,4E0,1.3E1,3E0,1E0,1E0,6E1,1E0,2.23E2,1E1,5.7E1],"tree_param":{"num_deleted":"0","num_feature":"85","num_nodes":"133","size_leaf_vector":"1"}},{"base_weights":[-4.1089773E-2,6.069182E-1,-5.217729E-1,9.316456E-1,3.7678573E-1,-3.4652406E-1,-9.8579544E-1,2.5E-1,9.505208E-1,-2.421875E-1,5.588915E-1,3.4722222E-3,-5.015432E-1,-8.167852E-2,-5E-1,-5E-1,7.021487E-2,9.605263E-1,-0E0,-4.597701E-2,-6.4285713E-1,7.744108E-1,8.759124E-2,2.6455027E-1,-4.9E-1,-7.633588E-2,-6.081081E-1,-7.167768E-2,5.4611564E-2,-6.553388E-2,4.0958673E-2,7.8E-1,9.848943E-1,5.4611564E-2,-5.4611564E-2,2.6785713E-1,-5.9375E-1,-1.5384616E-1,-8.333333E-1,8.6538464E-1,1.3157895E-1,-6.666667E-1,2.7027026E-1,6.436782E-1,-5.8252428E-2,-1.9607843E-1,-7.8E-1,-5.714286E-1,2.1686748E-1,-3.8E-1,-6.99187E-1,3.125E-1,7.957685E-2,8.116581E-2,4E-1,3.653846E-1,-6.553388E-2,-1.3333334E-1,-7.736638E-2,-6.8264455E-2,3.75E-1,4.0958673E-2,-8.965517E-1,4.4117647E-1,9.2511016E-1,-1.7857143E-1,7.447032E-2,-0E0,-8.5714287E-1,6.3492066E-1,-2.0408164E-1,7.733333E-1,-1.5384616E-1,4.1666666E-1,-3.0882353E-1,7E-1,-4.047619E-1,-8.1632656E-1,4.0958673E-2,1.5384616E-1,-8.108108E-1,5.4347825E-1,-1.8421052E-1,2.7777778E-2,-5.043478E-1,-7.293447E-1,-1.0526316E-1,5.9576254E-2,-4.0958673E-2,-4.0958673E-2,6.143801E-2,3.6779217E-2,-6.143801E-2,3.640771E-2,-7.021487E-2,-5.4611564E-2,6.8264455E-2,-7.8991726E-2,4.0958673E-2,-2.0479336E-2,6.410923E-2,7.648035E-2,-4.0958673E-2,3.276694E-2,-6.436363E-2,6.143801E-2,-6.143801E-2,4.0958673E-2,-7.782148E-2,6.323444E-2,-4.6809915E-2,1.5753336E-2,-5.119834E-2,-6.143801E-2,6.9402196E-2,3.0719005E-2,-6.8264455E-2,5.649472E-2,-5.119834E-2,-8.533057E-3,-6.2413216E-2,7.281542E-2,-4.0958673E-2,3.0719005E-2,-4.6809915E-2,-7.281542E-2,-0E0,7.167768E-2,-6.8264455E-2,-7.468934E-2,2.0479336E-2,-3.276694E-2,5.266115E-2,-6.436363E-2,1.3106775E-2,4.6078507E-2,-3.1206608E-2,-4.4615697E-2,6.143801E-2,-5.2098062E-2,-7.5392954E-2,4.0958673E-2,-5.7342142E-2],"categories":[],"categories_nodes":[],"categories_segments":[],"categories_sizes":[],"default_left":[0,0,0,0,0,0,0,0,0,0,0,0,0,0,0,0,0,0,0,0,0,0,0,0,0,0,0,0,0,0,0,0,0,0,0,0,0,0,0,0,0,0,0,0,0,0,0,0,0,0,0,0,0,0,0,0,0,0,0,0,0,0,0,0,0,0,0,0,0,0,0,0,0,0,0,0,0,0,0,0,0,0,0,0,0,0,0,0,0,0,0,0,0,0,0,0,0,0,0,0,0,0,0,0,0,0,0,0,0,0,0,0,0,0,0,0,0,0,0,0,0,0,0,0,0,0,0,0,0,0,0,0,0,0,0,0,0,0,0,0,0,0,0],"id":3,"left_children":[1,3,5,7,9,11,13,15,17,19,21,23,25,-1,27,29,-1,31,33,35,37,39,41,43,45,47,49,-1,-1,-1,-1,51,53,-1,-1,55,57,59,61,63,65,67,69,71,73,75,77,79,81,83,85,87,-1,-1,89,91,-1,93,-1,-1,95,-1,97,99,101,103,-1,105,107,109,111,113,115,117,119,121,123,125,-1,127,129,131,133,135,137,139,141,-1,-1,-1,-1,-1,-1,-1,-1,-1,-1,-1,-1,-1,-1,-1,-1,-1,-1,-1,-1,-1,-1,-1,-1,-1,-1,-1,-1,-1,-1,-1,-1,-1,-1,-1,-1,-1,-1,-1,-1,-1,-1,-1,-1,-1,-1,-1,-1,-1,-1,-1,-1,-1,-1,-1,-1],"loss_changes":[6.9773505E2,7.094168E1,1.0423517E2,4.844513E0,6.3257767E1,5.0731224E1,1.4319153E0,5.892857E0,3.652008E0,1.0033239E1,4.3913834E1,3.7234043E1,2.9315857E1,0E0,4.9583335E0,2.2E0,0E0,9.034424E-1,2.6666667E0,1.5115198E1,3.7838821E0,1.725496E1,1.9057014E1,2.316798E1,8.370783E0,1.9140255E1,1.0496201E1,0E0,0E0,0E0,0E0,4.171072E0,7.5198364E-1,0E0,0E0,6.12445E0,5.0409718E0,4.983974E0,2.9770107E0,6.179245E0,9.325871E0,3.4285717E0,1.9329533E1,9.115047E0,1.2385779E1,9.8201685E0,2.7330608E0,8.632015E0,1.0972816E1,7.619953E0,6.5325317E0,5.755682E0,0E0,0E0,1.95E0,5.1852436E0,0E0,6.653968E0,0E0,0E0,4.375E0,0E0,3.2253704E0,8.21931E0,3.2224426E0,1.0150001E1,0E0,4.5E0,3.1214275E0,1.08538E1,8.295722E0,9.077225E0,4.983974E0,1.0668102E1,6.226015E0,2.711111E0,5.6726193E0,2.9024963E0,0E0,9.9839735E0,4.190382E0,4.5701857E0,7.9933844E0,8.082341E0,6.221039E0,5.674011E0,7.1894736E0,0E0,0E0,0E0,0E0,0E0,0E0,0E0,0E0,0E0,0E0,0E0,0E0,0E0,0E0,0E0,0E0,0E0,0E0,0E0,0E0,0E0,0E0,0E0,0E0,0E0,0E0,0E0,0E0,0E0,0E0,0E0,0E0,0E0,0E0,0E0,0E0,0E0,0E0,0E0,0E0,0E0,0E0,0E0,0E0,0E0,0E0,0E0,0E0,0E0,0E0,0E0,0E0,0E0,0E0,0E0,0E0],"parents":[2147483647,0,0,1,1,2,2,3,3,4,4,5,5,6,6,7,7,8,8,9,9,10,10,11,11,12,12,14,14,15,15,17,17,18,18,19,19,20,20,21,21,22,22,23,23,24,24,25,25,26,26,31,31,32,32,35,35,36,36,37,37,38,38,39,39,40,40,41,41,42,42,43,43,44,44,45,45,46,46,47,47,48,48,49,49,50,50,51,51,54,54,55,55,57,57,60,60,62,62,63,63,64,64,65,65,67,67,68,68,69,69,70,70,71,71,72,72,73,73,74,74,75,75,76,76,77,77,79,79,80,80,81,81,82,82,83,83,84,84,85,85,86,86],"right_children":[2,4,6,8,10,12,14,16,18,20,22,24,26,-1,28,30,-1,32,34,36,38,40,42,44,46,48,50,-1,-1,-1,-1,52,54,-1,-1,56,58,60,62,64,66,68,70,72,74,76,78,80,82,84,86,88,-1,-1,90,92,-1,94,-1,-1,96,-1,98,100,102,104,-1,106,108,110,112,114,116,118,120,122,124,126,-1,128,130,132,134,136,138,140,142,-1,-1,-1,-1,-1,-1,-1,-1,-1,-1,-1,-1,-1,-1,-1,-1,-1,-1,-1,-1,-1,-1,-1,-1,-1,-1,-1,-1,-1,-1,-1,-1,-1,-1,-1,-1,-1,-1,-1,-1,-1,-1,-1,-1,-1,-1,-1,-1,-1,-1,-1,-1,-1,-1,-1,-1],"split_conditions":[1.1164677E1,8.185964E0,2.2435017E1,3.36E1,1.3928388E0,1E0,1E0,2E0,4.68E1,1.5250278E2,1.4494057E2,1.8094198E1,8.3659805E1,-2.644723E-3,1E0,7.7491937E0,2.143323E-3,1.125E2,1.630923E0,1.2297772E2,7E-1,1.4395813E2,1.9235384E0,1.296469E2,1.025E2,9.2195445E-1,7.361046E1,-2.7227749E-3,5.943556E-4,-5.4581696E-4,5.5505463E-4,2.7730849E0,8.095678E0,4.324227E-3,-3.0003834E-4,1.6084439E2,3.5168877E1,1E0,5.3E0,-1.0526913E0,1.7804494E0,1.456022E0,3.7259228E1,1.127E2,2.630057E1,3.44E1,1E0,9.6009E1,1.3061394E1,1.2070211E1,2.7018511E0,1.4087216E2,6.434756E-3,8.454482E-3,-7.853982E-1,4.578231E1,-5.56165E-4,1E0,-9.5155305E-4,-4.842931E-4,1.9209373E0,5.0149327E-3,1E0,1.374963E0,5.920304E1,9.806121E0,3.9087497E-3,1.111E2,1.094E2,4.72E1,1.6343262E2,1.03E2,1.4326549E1,1.125E2,1E0,1E0,7.19E1,1E0,5.3523045E-6,1.2971122E1,9E1,9.7E0,6.8746765E1,1.4494057E2,7.72E1,1.6239575E2,1.2974702E2,2.5034782E-3,-1.0362762E-4,-3.2460678E-4,4.4288994E-3,6.005674E-4,-2.5727926E-4,1.7868714E-4,-2.85987E-4,-4.6735042E-4,2.1776088E-4,-4.8928865E-4,1.95477E-3,-2.1805507E-4,2.598491E-3,3.4287537E-3,-2.1879174E-5,5.991929E-4,-3.8189802E-4,5.647629E-4,-4.2719318E-4,1.3587145E-4,-5.445032E-4,7.7585375E-4,-4.8370517E-4,6.7721805E-5,-5.2746065E-4,-4.472664E-4,3.6412315E-3,2.485497E-3,-2.7413806E-3,1.5476291E-3,-1.6035623E-3,-1.8320298E-4,-9.229561E-4,6.962642E-4,-5.0294725E-4,1.527752E-4,-2.8245515E-4,-1.4714597E-3,3.3638437E-6,4.2883743E-4,-1.1757477E-3,-1.7583192E-3,7.7903114E-4,-3.1732125E-4,1.3306392E-3,-1.0498995E-3,3.4978864E-4,1.012055E-3,-6.4475863E-4,-1.3655929E-3,3.9292398E-4,-1.3759728E-3,-2.1924872E-3,9.605997E-4,-6.6436233E-4],"split_indices":[72,72,72,7,74,34,53,0,7,77,77,72,77,0,10,72,0,6,2,78,73,78,74,77,6,73,78,0,0,0,0,76,72,0,0,79,4,82,9,3,73,74,4,6,4,7,51,78,72,72,73,77,0,0,3,4,0,84,0,0,76,0,32,2,4,72,0,6,6,7,77,6,72,6,44,21,8,59,0,72,8,9,80,77,9,77,80,0,0,0,0,0,0,0,0,0,0,0,0,0,0,0,0,0,0,0,0,0,0,0,0,0,0,0,0,0,0,0,0,0,0,0,0,0,0,0,0,0,0,0,0,0,0,0,0,0,0,0,0,0,0,0,0],"split_type":[0,0,0,0,0,0,0,0,0,0,0,0,0,0,0,0,0,0,0,0,0,0,0,0,0,0,0,0,0,0,0,0,0,0,0,0,0,0,0,0,0,0,0,0,0,0,0,0,0,0,0,0,0,0,0,0,0,0,0,0,0,0,0,0,0,0,0,0,0,0,0,0,0,0,0,0,0,0,0,0,0,0,0,0,0,0,0,0,0,0,0,0,0,0,0,0,0,0,0,0,0,0,0,0,0,0,0,0,0,0,0,0,0,0,0,0,0,0,0,0,0,0,0,0,0,0,0,0,0,0,0,0,0,0,0,0,0,0,0,0,0,0,0],"sum_hessian":[2.238E3,9.53E2,1.285E3,3.94E2,5.59E2,9.34E2,3.51E2,1.1E1,3.83E2,1.27E2,4.32E2,2.87E2,6.47E2,3.42E2,9E0,5E0,6E0,3.79E2,4E0,8.6E1,4.1E1,2.96E2,1.36E2,1.88E2,9.9E1,1.3E2,5.17E2,7E0,2E0,4E0,1E0,4.9E1,3.3E2,2E0,2E0,5.5E1,3.1E1,1.2E1,2.9E1,2.59E2,3.7E1,2.6E1,1.1E2,8.6E1,1.02E2,5E1,4.9E1,4.8E1,8.2E1,1.49E2,3.68E2,1.5E1,3.4E1,3.26E2,4E0,5.1E1,4E0,1.4E1,1.7E1,5E0,7E0,1E0,2.8E1,3.3E1,2.26E2,2.7E1,1E1,6E0,2E1,6.2E1,4.8E1,7.4E1,1.2E1,3.5E1,6.7E1,9E0,4.1E1,4.8E1,1E0,1.2E1,3.6E1,4.5E1,3.7E1,3.5E1,1.14E2,3.5E2,1.8E1,1E1,5E0,1E0,3E0,4.8E1,3E0,8E0,6E0,2E0,5E0,2.7E1,1E0,1.1E1,2.2E1,2.25E2,1E0,1.4E1,1.3E1,3E0,3E0,1E0,1.9E1,5.6E1,6E0,2.5E1,2.3E1,3E0,7.1E1,7E0,5E0,2.8E1,7E0,4.7E1,2E1,8E0,1E0,7E0,3.4E1,4.4E1,4E0,7E0,5E0,3.3E1,3E0,4E0,4.1E1,1.3E1,2.4E1,1.5E1,2E1,1.11E2,3E0,2.38E2,1.12E2,9E0,9E0],"tree_param":{"num_deleted":"0","num_feature":"85","num_nodes":"143","size_leaf_vector":"1"}},{"base_weights":[-5.180884E-2,7.172702E-1,-4.1458607E-1,8.6213595E-1,3.480392E-1,-2.3830156E-1,-9.6476966E-1,-6.25E-2,8.9E-1,-3.883495E-2,7.352941E-1,-1.7405063E-2,-5.047801E-1,-8.120708E-2,-5.416667E-1,-7.021487E-2,5E-1,8.9759034E-1,-5.4611564E-2,6.666667E-1,-4.6153846E-1,8.888889E-1,1.3636364E-1,-3.1864408E-1,2.4556214E-1,-6.956522E-1,-3.2472324E-1,5E-1,-8.4210527E-1,7.167768E-2,-5.4611564E-2,8.158968E-2,7.9518074E-1,8.965517E-1,-0E0,-0E0,-8.108108E-1,9.358974E-1,-2.5E-1,3.888889E-1,-6.553388E-2,-1.05820104E-1,-6.9158876E-1,4.784689E-1,-1.3076924E-1,6.143801E-2,-7.16E-1,2.739726E-2,-4.522613E-1,-4.0958673E-2,6.553388E-2,-7.736638E-2,4.0958673E-2,2.0689656E-1,8.687783E-1,-4.0958673E-2,7.8991726E-2,-3.75E-1,6.143801E-2,2.6086956E-1,-7.021487E-2,1.6666667E-1,-7.935743E-2,8.082511E-2,-2.5E-1,-5.4611564E-2,4.0958673E-2,-5E-1,7.692308E-1,-3.5772356E-1,3.5820895E-1,4E-1,-7.378641E-1,5.35E-1,-7E-1,1.3333334E-1,-4.8214287E-1,-5.743243E-1,-9.126214E-1,2.8846154E-1,-5.9090906E-1,-2.524272E-1,-6.597938E-1,7.281542E-2,-7.801652E-3,3.9717503E-2,7.628282E-2,5.4611564E-2,-6.8264455E-2,5.266115E-2,-2.4575206E-2,6.143801E-2,-5.4611564E-2,-5.4611564E-2,4.0958673E-2,-6.553388E-2,4.0958673E-2,7.50909E-2,-4.0958673E-2,-7.3140487E-3,-4.698201E-2,-7.447032E-2,4.886298E-2,6.143801E-2,-4.0958673E-2,-7.372561E-2,-3.132134E-2,6.616401E-2,2.9303765E-2,-7.281542E-2,4.0958673E-2,5.3758256E-2,-2.0479336E-2,-1.9858751E-2,-6.485123E-2,-2.006139E-2,-5.9799664E-2,-7.629556E-2,4.0958673E-2,4.3006603E-2,-3.7808005E-2,1.0239668E-2,-7.645619E-2,2.776859E-3,-5.0970793E-2,-7.219834E-2,-2.5205338E-2],"categories":[],"categories_nodes":[],"categories_segments":[],"categories_sizes":[],"default_left":[0,0,0,0,0,0,0,0,0,0,0,0,0,0,0,0,0,0,0,0,0,0,0,0,0,0,0,0,0,0,0,0,0,0,0,0,0,0,0,0,0,0,0,0,0,0,0,0,0,0,0,0,0,0,0,0,0,0,0,0,0,0,0,0,0,0,0,0,0,0,0,0,0,0,0,0,0,0,0,0,0,0,0,0,0,0,0,0,0,0,0,0,0,0,0,0,0,0,0,0,0,0,0,0,0,0,0,0,0,0,0,0,0,0,0,0,0,0,0,0,0,0,0,0,0,0,0],"id":4,"left_children":[1,3,5,7,9,11,13,15,17,19,21,23,25,-1,27,-1,29,31,-1,33,35,37,39,41,43,45,47,49,51,-1,-1,-1,53,55,57,59,61,63,65,67,-1,69,71,73,75,-1,77,79,81,-1,-1,-1,-1,83,85,-1,-1,87,-1,89,-1,91,-1,-1,93,-1,-1,95,97,99,101,103,105,107,109,111,113,115,117,119,121,123,125,-1,-1,-1,-1,-1,-1,-1,-1,-1,-1,-1,-1,-1,-1,-1,-1,-1,-1,-1,-1,-1,-1,-1,-1,-1,-1,-1,-1,-1,-1,-1,-1,-1,-1,-1,-1,-1,-1,-1,-1,-1,-1,-1,-1],"loss_changes":[6.2498816E2,3.810498E1,1.4738712E2,1.3324127E1,3.0591614E1,6.792047E1,3.6096497E0,7.580357E0,6.506256E0,3.1024149E1,9.262028E0,5.0142742E1,1.774849E1,0E0,7.932018E0,0E0,4.9583335E0,4.2268677E0,0E0,5.9770107E0,1.0478169E1,4.570511E0,5.513131E0,2.3341429E1,2.9688309E1,7.9792175E0,1.2182667E1,2.2E0,3.081871E0,0E0,0E0,0E0,1.0601028E1,3.2253704E0,3.375E0,6.7080746E0,5.8735924E0,4.9428253E0,1.5833334E0,6.470085E0,0E0,2.2220451E1,5.7001E0,1.4298111E1,1.2128114E1,0E0,6.439972E0,1.1953947E1,8.086391E0,0E0,0E0,0E0,0E0,6.0602083E0,4.8463287E0,0E0,0E0,4.375E0,0E0,5.1204967E0,0E0,3.4166667E0,0E0,0E0,1.5833334E0,0E0,0E0,2.2E0,2.8910255E0,7.074238E0,2.0774597E1,1.95E0,5.5929184E0,9.379452E0,2.711111E0,1.5197917E1,3.9632025E0,7.411209E0,3.193985E0,9.467308E0,5.5098486E0,1.0926912E1,7.296013E0,0E0,0E0,0E0,0E0,0E0,0E0,0E0,0E0,0E0,0E0,0E0,0E0,0E0,0E0,0E0,0E0,0E0,0E0,0E0,0E0,0E0,0E0,0E0,0E0,0E0,0E0,0E0,0E0,0E0,0E0,0E0,0E0,0E0,0E0,0E0,0E0,0E0,0E0,0E0,0E0,0E0,0E0,0E0,0E0],"parents":[2147483647,0,0,1,1,2,2,3,3,4,4,5,5,6,6,7,7,8,8,9,9,10,10,11,11,12,12,14,14,16,16,17,17,19,19,20,20,21,21,22,22,23,23,24,24,25,25,26,26,27,27,28,28,32,32,33,33,34,34,35,35,36,36,37,37,38,38,39,39,41,41,42,42,43,43,44,44,46,46,47,47,48,48,53,53,54,54,57,57,59,59,61,61,64,64,67,67,68,68,69,69,70,70,71,71,72,72,73,73,74,74,75,75,76,76,77,77,78,78,79,79,80,80,81,81,82,82],"right_children":[2,4,6,8,10,12,14,16,18,20,22,24,26,-1,28,-1,30,32,-1,34,36,38,40,42,44,46,48,50,52,-1,-1,-1,54,56,58,60,62,64,66,68,-1,70,72,74,76,-1,78,80,82,-1,-1,-1,-1,84,86,-1,-1,88,-1,90,-1,92,-1,-1,94,-1,-1,96,98,100,102,104,106,108,110,112,114,116,118,120,122,124,126,-1,-1,-1,-1,-1,-1,-1,-1,-1,-1,-1,-1,-1,-1,-1,-1,-1,-1,-1,-1,-1,-1,-1,-1,-1,-1,-1,-1,-1,-1,-1,-1,-1,-1,-1,-1,-1,-1,-1,-1,-1,-1,-1,-1],"split_conditions":[1.0012992E1,1.4695355E2,2.152301E1,1.8027756E0,2.0518284E0,1.4059933E2,6.1294373E1,1.118E2,8.376157E0,7.6655073E0,4.0759415E1,2.1633308E0,2.641969E0,-2.4215688E-3,2.89E1,-2.2007618E-4,1.5226581E2,7.9699435E0,-9.4981355E-5,6.68E1,3.21753E1,1.5113426E0,1.172E2,1.2984145E2,1.4326549E1,5.52E1,2.630057E1,8.28E1,1E0,1.8164353E-3,-5.351023E-5,8.978186E-3,1.2529964E0,8.80357E-1,2E0,1.115E2,4.8685516E1,9.9368E0,1.5471786E0,8E-1,-1.5459043E-3,1.0770329E0,8.583621E0,1.143E2,1E0,2.187069E-4,1.6597371E2,1.9202343E1,1.6343262E2,-3.3705777E-3,1.3597551E-4,-2.4294392E-3,9.3967293E-4,3.3031048E1,-1.1004821E0,-4.3259584E-4,2.088755E-3,1E0,1.467931E-3,1.2176186E2,-3.0381585E-4,1.123E2,-3.0647992E-4,2.386124E-3,1.595228E0,-3.0511493E-4,3.2973784E-4,2.347379E0,5.457701E1,9.350353E1,1.057E2,3.6717382E-1,6.4E1,1.1469089E1,9.199514E-1,1.3792824E2,1.3411778E2,1.174436E1,7.72E1,1.125E2,7.3539104E0,6.0207973E0,1.627882E0,1.2460161E-3,-1.22046215E-4,1.1067219E-3,4.100985E-3,3.2426135E-3,-2.7355558E-4,1.9992272E-4,-8.105389E-5,4.6041226E-3,-1.1167796E-3,-2.3395772E-4,1.7859529E-4,-2.9768597E-4,2.3109554E-3,3.1905796E-3,-3.34377E-4,-7.620114E-5,-8.086887E-4,-1.9908734E-3,1.0595474E-3,3.411486E-4,-2.019585E-3,-1.0588374E-3,-9.7275624E-4,2.6163727E-3,6.415426E-4,-9.261106E-4,3.3587657E-3,2.5493638E-3,-2.6769214E-4,-8.490504E-4,-2.0969925E-3,-4.2843568E-4,-1.5233259E-3,-1.6237303E-3,9.50199E-4,1.1092429E-3,-1.3230178E-3,2.2788263E-5,-6.977594E-4,5.453177E-5,-1.3148318E-3,-1.6513974E-3,-3.0193647E-4],"split_indices":[72,77,72,76,74,77,4,6,75,72,4,74,74,0,9,0,78,72,0,9,4,3,6,78,72,8,4,6,10,0,0,0,74,2,0,8,80,72,3,73,0,73,77,6,34,0,77,72,77,0,0,0,0,4,3,0,0,34,0,80,0,6,0,0,2,0,0,2,4,77,6,3,9,72,3,80,78,72,9,6,75,75,73,0,0,0,0,0,0,0,0,0,0,0,0,0,0,0,0,0,0,0,0,0,0,0,0,0,0,0,0,0,0,0,0,0,0,0,0,0,0,0,0,0,0,0,0],"split_type":[0,0,0,0,0,0,0,0,0,0,0,0,0,0,0,0,0,0,0,0,0,0,0,0,0,0,0,0,0,0,0,0,0,0,0,0,0,0,0,0,0,0,0,0,0,0,0,0,0,0,0,0,0,0,0,0,0,0,0,0,0,0,0,0,0,0,0,0,0,0,0,0,0,0,0,0,0,0,0,0,0,0,0,0,0,0,0,0,0,0,0,0,0,0,0,0,0,0,0,0,0,0,0,0,0,0,0,0,0,0,0,0,0,0,0,0,0,0,0,0,0,0,0,0,0,0,0],"sum_hessian":[2.238E3,7.17E2,1.521E3,5.14E2,2.03E2,1.153E3,3.68E2,1.5E1,4.99E2,1.02E2,1.01E2,6.31E2,5.22E2,3.45E2,2.3E1,6E0,9E0,4.97E2,2E0,3.8E1,6.4E1,8E1,2.1E1,2.94E2,3.37E2,2.52E2,2.7E2,5E0,1.8E1,7E0,2E0,2.49E2,2.48E2,2.8E1,1E1,2.8E1,3.6E1,7.7E1,3E0,1.7E1,4E0,1.88E2,1.06E2,2.08E2,1.29E2,3E0,2.49E2,7.2E1,1.98E2,1E0,4E0,1.7E1,1E0,2.8E1,2.2E2,1E0,2.7E1,7E0,3E0,2.2E1,6E0,5E0,3.1E1,7.4E1,3E0,2E0,1E0,5E0,1.2E1,1.22E2,6.6E1,4E0,1.02E2,1.99E2,9E0,7.4E1,5.5E1,1.47E2,1.02E2,5.1E1,2.1E1,1.02E2,9.6E1,8E0,2E1,3.2E1,1.88E2,2E0,5E0,1.3E1,9E0,3E0,2E0,2E0,1E0,4E0,1E0,1.1E1,1E0,5.5E1,6.7E1,1E1,5.6E1,3E0,1E0,6.9E1,3.3E1,7.7E1,1.22E2,8E0,1E0,3.1E1,4.3E1,3.2E1,2.3E1,4.8E1,9.9E1,1.01E2,1E0,3.9E1,1.2E1,7E0,1.4E1,5.8E1,4.4E1,5.8E1,3.8E1],"tree_param":{"num_deleted":"0","num_feature":"85","num_nodes":"127","size_leaf_vector":"1"}},{"base_weights":[-5.895489E-2,5.0049263E-1,-5.2244896E-1,8.1838566E-1,2.508772E-1,-3.4428087E-1,-9.7959185E-1,9.186747E-1,5.217391E-1,3.2994922E-2,7.344633E-1,-6.8728523E-3,-5.092749E-1,-8.1181556E-2,-5E-1,5.4545456E-1,9.5666665E-1,9.166667E-1,8.928572E-2,3.147208E-1,-2.4747474E-1,8.0981594E-1,-1.3333334E-1,3.8732395E-1,-3.8E-1,-3.490566E-1,-6.92029E-1,-7.167768E-2,5.4611564E-2,8.695652E-1,-1.8181819E-1,9.632107E-1,-4.0958673E-2,8.0504976E-2,-5.4611564E-2,-2.1621622E-1,6.5E-1,6.306306E-1,-9.195402E-2,3.6585364E-2,-4.4444445E-1,-5E-1,8.544304E-1,6.8264455E-2,-7E-1,4.9242425E-1,-7.447032E-2,-2.5438598E-1,-7.567568E-1,-5.3097345E-2,-5.0970876E-1,-7.7403843E-1,-4.347826E-1,7.819383E-2,-4.0958673E-2,-6.8264455E-2,5E-1,2.5E-1,9.695946E-1,-3.8709676E-1,5.714286E-1,8.333333E-1,-5.4611564E-2,7.5E-1,-4.1666666E-1,-2.7142859E-1,6.111111E-1,2.8070176E-1,-5E-1,-6.3095236E-1,2.9411765E-2,4.0958673E-2,-6.553388E-2,8.782051E-1,-5.4611564E-2,4.0958673E-2,-7.281542E-2,6.388889E-1,-1.6E-1,-1.5E-1,-7.645619E-2,2.5E-1,-8.5294116E-1,1.0989011E-1,-6.956522E-1,1.6666667E-1,-5.714286E-1,-3.2142857E-1,-8.39779E-1,5.833333E-1,-6.3793105E-1,-4.0958673E-2,6.553388E-2,-4.0958673E-2,5.4611564E-2,7.996027E-2,2.0479336E-2,1.2602669E-2,-6.036015E-2,6.8264455E-2,-4.0958673E-2,-4.0958673E-2,7.7098675E-2,-5.4611564E-2,6.436363E-2,-7.281542E-2,6.143801E-2,-3.6570244E-2,3.276694E-2,6.553388E-2,-2.0479336E-2,4.527011E-2,-2.0479336E-2,-6.2413216E-2,4.0958673E-2,2.3404958E-2,-5.776223E-2,2.0479336E-2,-7.021487E-2,7.388623E-2,-2.0479336E-2,5.726261E-2,-4.0958673E-2,-4.0958673E-2,5.119834E-2,1.3374261E-2,-3.6232673E-2,5.4611564E-2,-4.0958673E-2,-7.918677E-2,-0E0,-6.143801E-2,1.945537E-2,3.276694E-2,-7.760591E-2,-5.119834E-2,5.9576254E-2,-3.615662E-2,-8.009696E-2,-4.2739484E-2,4.0958673E-2,-7.0476376E-2,5.4611564E-2,7.281542E-2,-2.0479336E-2,-5.7049584E-2,5.4611564E-2],"categories":[],"categories_nodes":[],"categories_segments":[],"categories_sizes":[],"default_left":[0,0,0,0,0,0,0,0,0,0,0,0,0,0,0,0,0,0,0,0,0,0,0,0,0,0,0,0,0,0,0,0,0,0,0,0,0,0,0,0,0,0,0,0,0,0,0,0,0,0,0,0,0,0,0,0,0,0,0,0,0,0,0,0,0,0,0,0,0,0,0,0,0,0,0,0,0,0,0,0,0,0,0,0,0,0,0,0,0,0,0,0,0,0,0,0,0,0,0,0,0,0,0,0,0,0,0,0,0,0,0,0,0,0,0,0,0,0,0,0,0,0,0,0,0,0,0,0,0,0,0,0,0,0,0,0,0,0,0,0,0,0,0,0,0,0,0],"id":5,"left_children":[1,3,5,7,9,11,13,15,17,19,21,23,25,-1,27,29,31,33,35,37,39,41,43,45,47,49,51,-1,-1,53,55,57,-1,-1,-1,59,61,63,65,67,69,71,73,-1,75,77,-1,79,81,83,85,87,89,-1,-1,-1,91,93,95,97,99,101,-1,103,105,107,109,111,113,115,117,-1,-1,119,-1,-1,-1,121,123,125,-1,127,129,131,133,135,137,139,141,143,145,-1,-1,-1,-1,-1,-1,-1,-1,-1,-1,-1,-1,-1,-1,-1,-1,-1,-1,-1,-1,-1,-1,-1,-1,-1,-1,-1,-1,-1,-1,-1,-1,-1,-1,-1,-1,-1,-1,-1,-1,-1,-1,-1,-1,-1,-1,-1,-1,-1,-1,-1,-1,-1,-1,-1,-1],"loss_changes":[5.808355E2,8.033594E1,9.943689E1,1.2789368E1,6.003372E1,4.9153374E1,1.3840942E0,4.18573E0,1.955875E1,3.1210018E1,1.1682152E1,4.294907E1,1.712181E1,0E0,4.9583335E0,7.936758E0,3.3413696E0,6.9339066E0,9.733301E0,2.536709E1,1.10946045E1,9.952393E0,8.8E0,1.9795668E1,6.9063835E0,1.509272E1,5.4861298E0,0E0,0E0,3.15415E0,5.30303E0,1.1189575E0,0E0,0E0,0E0,5.201146E0,5.383333E0,1.4189186E1,1.1143733E1,1.0881472E1,1.0358776E1,2.2E0,6.2993393E0,0E0,2.711111E0,1.2715755E1,0E0,7.9394736E0,3.7961044E0,1.1910751E1,8.69487E0,5.9190674E0,1.4643305E1,0E0,0E0,0E0,2.2E0,1.5833334E0,1.1435852E0,5.9783206E0,2.3809521E0,3.0588236E0,0E0,5.583332E0,7.2777777E0,8.403572E0,3.127778E0,8.364035E0,7.1904764E0,5.913006E0,6.8634453E0,0E0,0E0,4.4064865E0,0E0,0E0,0E0,7.746765E0,6.985E0,9.229199E0,0E0,1.5833334E0,3.2980385E0,1.0163599E1,6.7221956E0,8.443182E0,9.556206E0,4.8680124E0,6.178543E0,3.2777777E0,4.8906E0,0E0,0E0,0E0,0E0,0E0,0E0,0E0,0E0,0E0,0E0,0E0,0E0,0E0,0E0,0E0,0E0,0E0,0E0,0E0,0E0,0E0,0E0,0E0,0E0,0E0,0E0,0E0,0E0,0E0,0E0,0E0,0E0,0E0,0E0,0E0,0E0,0E0,0E0,0E0,0E0,0E0,0E0,0E0,0E0,0E0,0E0,0E0,0E0,0E0,0E0,0E0,0E0,0E0,0E0,0E0,0E0],"parents":[2147483647,0,0,1,1,2,2,3,3,4,4,5,5,6,6,7,7,8,8,9,9,10,10,11,11,12,12,14,14,15,15,16,16,17,17,18,18,19,19,20,20,21,21,22,22,23,23,24,24,25,25,26,26,29,29,30,30,31,31,35,35,36,36,37,37,38,38,39,39,40,40,41,41,42,42,44,44,45,45,47,47,48,48,49,49,50,50,51,51,52,52,56,56,57,57,58,58,59,59,60,60,61,61,63,63,64,64,65,65,66,66,67,67,68,68,69,69,70,70,73,73,77,77,78,78,79,79,81,81,82,82,83,83,84,84,85,85,86,86,87,87,88,88,89,89,90,90],"right_children":[2,4,6,8,10,12,14,16,18,20,22,24,26,-1,28,30,32,34,36,38,40,42,44,46,48,50,52,-1,-1,54,56,58,-1,-1,-1,60,62,64,66,68,70,72,74,-1,76,78,-1,80,82,84,86,88,90,-1,-1,-1,92,94,96,98,100,102,-1,104,106,108,110,112,114,116,118,-1,-1,120,-1,-1,-1,122,124,126,-1,128,130,132,134,136,138,140,142,144,146,-1,-1,-1,-1,-1,-1,-1,-1,-1,-1,-1,-1,-1,-1,-1,-1,-1,-1,-1,-1,-1,-1,-1,-1,-1,-1,-1,-1,-1,-1,-1,-1,-1,-1,-1,-1,-1,-1,-1,-1,-1,-1,-1,-1,-1,-1,-1,-1,-1,-1,-1,-1,-1,-1,-1,-1],"split_conditions":[1.1524756E1,8.502353E0,2.2812716E1,1.4573889E2,1.360147E0,1E0,1E0,2.1931713E0,7.300685E0,1.3008665E2,1.162E2,1.6521502E1,1.4059933E2,-2.2552798E-3,1E0,1.412105E2,4.72E1,4.5276924E1,3.7161808E0,1.0248416E2,3.3202408E1,2.0223749E0,6.0207973E0,1.143E2,6.48E1,1.2826535E1,1.4035668E0,-2.300719E-3,5.0161034E-4,1E0,1.131E2,2.2E0,-1.03628845E-4,5.4642973E-3,-2.8252776E-4,1.76702E2,4.363542E1,1.6084439E2,1E0,1.7016644E2,2.7856777E0,1.1E2,1E0,1.673631E-3,7.1E0,6.73E1,-3.140224E-3,1.104E2,5E1,1.3108176E2,1.066652E0,4.1905132E1,1.4317821E0,1.6676376E-3,-8.783224E-5,-8.3332874E-5,-1.3767939E0,9.680528E-1,1E0,1.582485E2,1.6801E0,-1.475031E0,-3.632652E-4,7.0710677E-1,1.9235384E0,2.1213202E0,1E0,1.2079818E2,1E0,3.605587E1,1.1054863E1,1.5828271E-3,-3.684715E-4,1E0,-5.1702594E-4,1.8072968E-3,-2.4977126E-3,5.27E1,-9.588052E-1,1.9416489E1,-3.2806383E-3,4.420056E0,1.136E2,9.433981E-1,-9.874635E-1,2.5E1,1.4312454E2,1E0,1E0,1.6135086E2,1E0,-6.835124E-4,1.0917655E-3,-4.878687E-4,3.2938162E-3,7.268528E-3,7.0758522E-3,3.1774787E-5,-3.086399E-4,2.7867572E-3,-8.673364E-5,-7.2695763E-4,2.2217212E-3,-5.21106E-4,1.7426254E-3,-3.2178216E-4,6.201685E-4,-3.1874698E-4,1.1993493E-3,8.9984783E-4,-2.908524E-4,2.5775286E-4,-2.87574E-4,-2.2785578E-4,8.5648164E-5,8.3629036E-4,-3.843662E-4,1.8427748E-4,-5.5516296E-4,3.0696732E-3,-1.8801088E-4,2.4214615E-3,-1.1056773E-3,-4.531634E-4,1.8877473E-3,8.6778804E-5,-2.633786E-4,8.507415E-5,-2.0029838E-3,-1.093031E-3,-3.688656E-4,-1.1706521E-3,1.8438855E-4,7.724364E-4,-8.209127E-4,-5.784911E-4,7.7127427E-4,-9.971784E-4,-2.0708425E-3,-1.1965048E-3,6.18101E-4,-1.7461239E-3,1.6857344E-3,4.7570892E-4,-1.12099944E-4,-1.2830206E-3,3.400052E-3],"split_indices":[72,72,72,77,73,34,53,76,72,77,6,72,77,0,10,78,7,4,76,78,4,75,75,6,9,72,73,0,0,20,6,9,0,0,0,77,4,79,82,77,74,6,64,0,9,9,0,6,8,79,2,79,73,0,0,0,3,3,54,77,2,3,0,74,74,74,68,80,13,79,72,0,0,17,0,0,0,7,3,72,0,2,8,74,3,4,78,82,31,77,56,0,0,0,0,0,0,0,0,0,0,0,0,0,0,0,0,0,0,0,0,0,0,0,0,0,0,0,0,0,0,0,0,0,0,0,0,0,0,0,0,0,0,0,0,0,0,0,0,0,0,0,0,0,0,0,0],"split_type":[0,0,0,0,0,0,0,0,0,0,0,0,0,0,0,0,0,0,0,0,0,0,0,0,0,0,0,0,0,0,0,0,0,0,0,0,0,0,0,0,0,0,0,0,0,0,0,0,0,0,0,0,0,0,0,0,0,0,0,0,0,0,0,0,0,0,0,0,0,0,0,0,0,0,0,0,0,0,0,0,0,0,0,0,0,0,0,0,0,0,0,0,0,0,0,0,0,0,0,0,0,0,0,0,0,0,0,0,0,0,0,0,0,0,0,0,0,0,0,0,0,0,0,0,0,0,0,0,0,0,0,0,0,0,0,0,0,0,0,0,0,0,0,0,0,0,0],"sum_hessian":[2.238E3,1.014E3,1.224E3,4.45E2,5.69E2,8.82E2,3.42E2,3.31E2,1.14E2,3.93E2,1.76E2,2.9E2,5.92E2,3.33E2,9E0,3.2E1,2.99E2,5.9E1,5.5E1,1.96E2,1.97E2,1.62E2,1.4E1,1.41E2,1.49E2,3.17E2,2.75E2,7E0,2E0,2.2E1,1E1,2.98E2,1E0,5.7E1,2E0,3.6E1,1.9E1,1.1E2,8.6E1,8.1E1,1.16E2,5E0,1.57E2,5E0,9E0,1.31E2,1E1,1.13E2,3.6E1,1.12E2,2.05E2,2.07E2,6.8E1,2.1E1,1E0,5E0,5E0,3E0,2.95E2,3E1,6E0,1.7E1,2E0,9.9E1,1.1E1,6.9E1,1.7E1,5.6E1,2.5E1,8.3E1,3.3E1,1E0,4E0,1.55E2,2E0,1E0,8E0,1.07E2,2.4E1,9.9E1,1.4E1,3E0,3.3E1,9E1,2.2E1,1.7E1,1.88E2,2.7E1,1.8E2,1.1E1,5.7E1,1E0,4E0,1E0,2E0,2.92E2,3E0,1.2E1,1.8E1,5E0,1E0,1E0,1.6E1,2E0,9.7E1,8E0,3E0,5.5E1,1.4E1,1.4E1,3E0,3.7E1,1.9E1,2E1,5E0,6E0,7.7E1,2.7E1,6E0,1.52E2,3E0,1.02E2,5E0,1.7E1,7E0,4.8E1,5.1E1,2E0,1E0,2.9E1,4E0,1.1E1,7.9E1,4E0,1.8E1,7E0,1E1,1.44E2,4.4E1,2.2E1,5E0,1.78E2,2E0,8E0,3E0,5.5E1,2E0],"tree_param":{"num_deleted":"0","num_feature":"85","num_nodes":"147","size_leaf_vector":"1"}},{"base_weights":[-8.039303E-2,4.4831014E-1,-5.113452E-1,6.782178E-1,9.975062E-2,-3.3295965E-1,-9.7376096E-1,1.8548387E-1,8.033126E-1,8.8461536E-1,-8.950617E-2,-5.202429E-1,-1.00250624E-1,-8.069104E-2,-5E-1,6.212121E-1,-3.0508474E-1,9.041096E-1,4.8739496E-1,9.3333334E-1,-2.5E-1,3.0555555E-1,-2.857143E-1,-3.7623763E-1,-7.447917E-1,2.6712328E-1,-3.1102362E-1,-7.167768E-2,5.4611564E-2,2.0689656E-1,9.2105263E-1,5.4545456E-1,-4.8979592E-1,-2.5E-1,9.1436464E-1,6.931818E-1,-9.375E-2,9.594595E-1,-4.0958673E-2,-5.4611564E-2,4.0958673E-2,5.967742E-1,-8.510638E-2,-5.3E-1,-7.6271184E-2,-5.36036E-1,6.097561E-2,-7.631579E-1,5.4611564E-2,7.173913E-1,5.940594E-2,-2.4568966E-1,-7.835572E-2,5.5E-1,-5E-1,7.970337E-2,-4.0958673E-2,7.167768E-2,-2.5E-1,6.143801E-2,-5.869565E-1,4.0958673E-2,-5.4611564E-2,9.738806E-1,7.368421E-1,-1.8181819E-1,8.076923E-1,-7.447032E-2,3.181818E-1,8.073014E-2,5E-1,6.779661E-1,-6.143801E-2,4.7058824E-1,-3.8709676E-1,-3.857143E-1,-8.3870965E-1,3.1666666E-1,-4.7457626E-1,-2.8235295E-1,-6.884058E-1,5.714286E-1,-1.1290322E-1,-2.6086956E-1,-8.2738096E-1,9.189189E-1,-1E-1,5.6E-1,-1.03896104E-1,-5.967742E-1,-1.16959065E-1,7.561601E-2,-1.0239668E-2,-7.167768E-2,5.4611564E-2,4.0958673E-2,-5.4611564E-2,-7.736638E-2,-2.824736E-2,5.266115E-2,8.095361E-2,1.1170547E-2,7.416841E-2,4.0958673E-2,-6.8264455E-2,-2.0479336E-2,6.99028E-2,-5.8512394E-3,7.281542E-2,-4.0958673E-2,6.553388E-2,6.458868E-2,-1.0239668E-2,-5.4611564E-2,5.4611564E-2,-7.606611E-2,4.5509636E-3,-7.1232475E-2,-1.194628E-2,-7.372561E-2,4.0958673E-2,5.1947583E-2,-2.8671071E-2,-7.021487E-2,-2.100445E-2,3.4858445E-3,-5.4611564E-2,-6.7560695E-2,-2.9256195E-2,6.746134E-2,-3.276694E-2,5.0410677E-2,-2.4575206E-2,-7.281542E-2,1.0922314E-2,-6.867322E-2,4.0958673E-2,7.964186E-2,-4.0958673E-2,-6.553388E-2,4.0958673E-2,5.698598E-2,-5.4611564E-2,4.778512E-2,-1.861758E-2,-5.324627E-2,5.4611564E-2,6.241322E-3,-3.4234114E-2],"categories":[],"categories_nodes":[],"categories_segments":[],"categories_sizes":[],"default_left":[0,0,0,0,0,0,0,0,0,0,0,0,0,0,0,0,0,0,0,0,0,0,0,0,0,0,0,0,0,0,0,0,0,0,0,0,0,0,0,0,0,0,0,0,0,0,0,0,0,0,0,0,0,0,0,0,0,0,0,0,0,0,0,0,0,0,0,0,0,0,0,0,0,0,0,0,0,0,0,0,0,0,0,0,0,0,0,0,0,0,0,0,0,0,0,0,0,0,0,0,0,0,0,0,0,0,0,0,0,0,0,0,0,0,0,0,0,0,0,0,0,0,0,0,0,0,0,0,0,0,0,0,0,0,0,0,0,0,0,0,0,0,0,0,0,0,0,0,0],"id":6,"left_children":[1,3,5,7,9,11,13,15,17,19,21,23,25,-1,27,29,31,33,35,37,39,41,43,45,47,49,51,-1,-1,53,55,57,59,61,63,65,67,69,-1,-1,-1,71,73,75,77,79,81,83,-1,85,87,89,-1,91,93,-1,-1,-1,95,-1,97,-1,-1,99,101,103,105,-1,107,-1,109,111,-1,113,115,117,119,121,123,125,127,129,131,133,135,137,139,141,143,145,147,-1,-1,-1,-1,-1,-1,-1,-1,-1,-1,-1,-1,-1,-1,-1,-1,-1,-1,-1,-1,-1,-1,-1,-1,-1,-1,-1,-1,-1,-1,-1,-1,-1,-1,-1,-1,-1,-1,-1,-1,-1,-1,-1,-1,-1,-1,-1,-1,-1,-1,-1,-1,-1,-1,-1,-1,-1,-1],"loss_changes":[5.1037595E2,8.054968E1,1.0146631E2,3.720392E1,5.9644115E1,3.8823433E1,1.3387146E0,2.6695093E1,1.4939789E1,4.544876E0,2.520194E1,1.5693878E1,3.097865E1,0E0,4.9583335E0,8.008526E0,9.5363035E0,4.548523E0,1.4296434E1,3.2882843E0,1.5833334E0,1.2337737E1,1.1062157E1,2.1202072E1,5.486023E0,1.3612541E1,1.0476925E1,0E0,0E0,7.308621E0,3.290184E0,3.1022727E0,6.342724E0,1.5833334E0,3.1070862E0,8.964161E0,1.1036932E1,3.9287567E-1,0E0,0E0,0E0,7.288E0,8.069442E0,4.1307373E0,1.861836E1,8.386738E0,7.3425875E0,5.913269E0,0E0,7.6693306E0,8.3147335E0,1.0415516E1,0E0,5.151923E0,4.9583335E0,0E0,0E0,0E0,1.5833334E0,0E0,3.6560059E0,0E0,0E0,6.381836E-1,9.492306E0,5.30303E0,3.9787178E0,0E0,4.955267E0,0E0,2.2E0,5.3332787E0,0E0,4.2352943E0,7.4818225E0,7.9978523E0,2.9935474E0,1.2921139E1,4.7045383E0,1.064197E1,5.9379654E0,5.4722686E0,8.632754E0,5.8125606E0,2.8593216E0,3.2845345E0,4.6E0,4.623768E0,6.661256E0,4.6026897E0,9.971835E0,0E0,0E0,0E0,0E0,0E0,0E0,0E0,0E0,0E0,0E0,0E0,0E0,0E0,0E0,0E0,0E0,0E0,0E0,0E0,0E0,0E0,0E0,0E0,0E0,0E0,0E0,0E0,0E0,0E0,0E0,0E0,0E0,0E0,0E0,0E0,0E0,0E0,0E0,0E0,0E0,0E0,0E0,0E0,0E0,0E0,0E0,0E0,0E0,0E0,0E0,0E0,0E0,0E0,0E0,0E0,0E0,0E0,0E0],"parents":[2147483647,0,0,1,1,2,2,3,3,4,4,5,5,6,6,7,7,8,8,9,9,10,10,11,11,12,12,14,14,15,15,16,16,17,17,18,18,19,19,20,20,21,21,22,22,23,23,24,24,25,25,26,26,29,29,30,30,31,31,32,32,33,33,34,34,35,35,36,36,37,37,41,41,42,42,43,43,44,44,45,45,46,46,47,47,49,49,50,50,51,51,53,53,54,54,58,58,60,60,63,63,64,64,65,65,66,66,68,68,70,70,71,71,73,73,74,74,75,75,76,76,77,77,78,78,79,79,80,80,81,81,82,82,83,83,84,84,85,85,86,86,87,87,88,88,89,89,90,90],"right_children":[2,4,6,8,10,12,14,16,18,20,22,24,26,-1,28,30,32,34,36,38,40,42,44,46,48,50,52,-1,-1,54,56,58,60,62,64,66,68,70,-1,-1,-1,72,74,76,78,80,82,84,-1,86,88,90,-1,92,94,-1,-1,-1,96,-1,98,-1,-1,100,102,104,106,-1,108,-1,110,112,-1,114,116,118,120,122,124,126,128,130,132,134,136,138,140,142,144,146,148,-1,-1,-1,-1,-1,-1,-1,-1,-1,-1,-1,-1,-1,-1,-1,-1,-1,-1,-1,-1,-1,-1,-1,-1,-1,-1,-1,-1,-1,-1,-1,-1,-1,-1,-1,-1,-1,-1,-1,-1,-1,-1,-1,-1,-1,-1,-1,-1,-1,-1,-1,-1,-1,-1,-1,-1,-1,-1],"split_conditions":[1.1469089E1,1.317295E2,2.2812716E1,1.3928388E0,7.2339478E0,1.4035668E0,1E0,9.078547E0,1.0097525E1,4.5276924E1,7.27432E1,1.5016446E2,1.4221462E1,-2.070533E-3,1E0,1.131E2,7.86E1,1.9723083E0,1.2798114E2,1.642372E0,2E0,9.521029E0,1.9235384E0,2.7073972E0,1.765995E2,1E0,5.4E1,-2.11225E-3,4.6051975E-4,1.329522E2,1.174E2,2.0655E0,1.079903E0,9.292E-1,1.2060242E2,1.9209373E0,8.921517E1,2.0655E0,-1.5513596E-4,-2.59384E-4,3.2743867E-3,1E0,3.83E1,9.130299E-1,3.7259228E1,1.29031E1,9.038453E1,4.1905132E1,5.1655126E-5,1.125E2,8.013419E1,4.304649E0,-2.943723E-3,3.7259228E1,1.9723083E0,4.126496E-3,-4.2177405E-4,4.2229984E-4,2E0,1.0566326E-3,-7.853982E-1,9.625054E-4,-1.8624641E-4,4.9E0,1.9849433E0,1.0118856E2,5.0990194E-1,-3.9779517E-4,3.1E0,5.3956136E-3,2.0781E0,4.017412E1,-9.129648E-5,-1.0105643E0,1.7E0,3.7E1,1E0,1.6740884E2,3.5468295E0,4.03E1,6.4E1,1E0,4.1905132E1,1.6061102E1,7.6E1,1E0,8.95754E-1,9.4917226E-1,1.4317821E0,1E0,1.8962067E1,1.3860553E-3,-3.6777983E-5,-7.650631E-5,1.6681656E-3,2.5178182E-3,-7.281847E-4,-8.374961E-4,-2.038528E-4,3.4456805E-3,6.3260742E-3,3.4114494E-4,4.809244E-3,1.0827347E-4,-3.0142762E-4,-1.03644714E-4,2.1279878E-3,-2.2379035E-4,2.9156758E-3,-1.5925753E-4,7.2402824E-3,8.389578E-4,-1.6770269E-4,-4.8749306E-4,3.3761296E-4,-5.130763E-4,4.8239097E-5,-3.7165254E-4,-9.616082E-6,-2.2226086E-4,8.491662E-4,1.3476199E-3,-1.6082029E-4,-3.1688702E-4,-2.6794343E-4,5.204696E-5,-5.018009E-4,-1.548294E-3,-1.389651E-3,2.799565E-3,-1.5026534E-3,3.1818854E-4,-9.234689E-4,-1.7523083E-3,4.0091015E-4,-1.6681417E-3,1.1875714E-4,3.5486924E-3,-1.2749435E-4,-9.499486E-4,2.0309784E-3,9.221845E-4,-8.43609E-4,3.2033995E-4,-2.8114385E-4,-1.177919E-3,4.8593115E-3,5.653763E-5,-3.753246E-4],"split_indices":[72,77,72,74,72,73,53,72,72,4,78,77,72,0,10,6,8,76,78,3,0,72,74,74,80,34,7,0,0,78,6,2,2,2,79,75,80,2,0,0,0,68,7,3,4,72,77,79,0,6,77,75,0,4,75,0,0,0,0,0,3,0,0,9,74,79,73,0,74,0,2,4,0,3,74,7,26,77,75,7,9,23,79,79,4,66,2,3,73,12,72,0,0,0,0,0,0,0,0,0,0,0,0,0,0,0,0,0,0,0,0,0,0,0,0,0,0,0,0,0,0,0,0,0,0,0,0,0,0,0,0,0,0,0,0,0,0,0,0,0,0,0,0,0,0,0,0,0,0],"split_type":[0,0,0,0,0,0,0,0,0,0,0,0,0,0,0,0,0,0,0,0,0,0,0,0,0,0,0,0,0,0,0,0,0,0,0,0,0,0,0,0,0,0,0,0,0,0,0,0,0,0,0,0,0,0,0,0,0,0,0,0,0,0,0,0,0,0,0,0,0,0,0,0,0,0,0,0,0,0,0,0,0,0,0,0,0,0,0,0,0,0,0,0,0,0,0,0,0,0,0,0,0,0,0,0,0,0,0,0,0,0,0,0,0,0,0,0,0,0,0,0,0,0,0,0,0,0,0,0,0,0,0,0,0,0,0,0,0,0,0,0,0,0,0,0,0,0,0,0,0],"sum_hessian":[2.238E3,1.005E3,1.233E3,6.05E2,4E2,8.91E2,3.42E2,1.23E2,4.82E2,7.7E1,3.23E2,4.93E2,3.98E2,3.33E2,9E0,6.5E1,5.8E1,3.64E2,1.18E2,7.4E1,3E0,1.07E2,2.16E2,3.02E2,1.91E2,1.45E2,2.53E2,7E0,2E0,2.8E1,3.7E1,1E1,4.8E1,3E0,3.61E2,8.7E1,3.1E1,7.3E1,1E0,2E0,1E0,6.1E1,4.6E1,9.9E1,1.17E2,2.21E2,8.1E1,1.89E2,2E0,4.5E1,1E2,2.31E2,2.2E1,1.9E1,9E0,3.6E1,1E0,7E0,3E0,3E0,4.5E1,1E0,2E0,2.67E2,9.4E1,1E1,7.7E1,1E1,2.1E1,6.8E1,5E0,5.8E1,3E0,1.6E1,3E1,6.9E1,3E1,5.9E1,5.8E1,8.4E1,1.37E2,2E1,6.1E1,2.2E1,1.67E2,3.6E1,9E0,2.4E1,7.6E1,6.1E1,1.7E2,1.2E1,7E0,7E0,2E0,1E0,2E0,1.7E1,2.8E1,1.3E1,2.54E2,2.1E1,7.3E1,5E0,5E0,3E0,7.4E1,1.3E1,8E0,1E0,4E0,5.1E1,7E0,2E0,1.4E1,1.3E1,1.7E1,2.2E1,4.7E1,2.9E1,1E0,4E1,1.9E1,2E1,3.8E1,4.6E1,3.8E1,9.6E1,4.1E1,1.6E1,4E0,1.2E1,4.9E1,8E0,1.4E1,1.66E2,1E0,3.5E1,1E0,4E0,5E0,2.2E1,2E0,1.1E1,6.5E1,5.9E1,2E0,1.04E2,6.6E1],"tree_param":{"num_deleted":"0","num_feature":"85","num_nodes":"149","size_leaf_vector":"1"}},{"base_weights":[-8.217955E-2,4.5266595E-1,-4.5420137E-1,6.884328E-1,1.22395836E-1,-2.7834007E-1,-9.730539E-1,3.4848484E-1,8.8495576E-1,8.076923E-1,-5.2117262E-2,3.1948883E-2,-4.2159763E-1,4.0958673E-2,-9.78979E-1,7.5581396E-1,3.539823E-2,-5.4611564E-2,8.961424E-1,-6.143801E-2,8.8E-1,3.5955057E-1,-2.1917808E-1,2.4285714E-1,-3.9423078E-1,-2.3076924E-2,-5.155393E-1,-7.058824E-1,-8.1142105E-2,8.9855075E-1,1.6666667E-1,1.8947369E-1,-7.368421E-1,-1.6666667E-1,9.126506E-1,9.2957747E-1,-0E0,9.615385E-2,7.105263E-1,-1.438849E-2,-5.6790125E-1,6.885246E-1,6E-2,-4.742268E-1,6.25E-1,-5.531915E-1,2.7380952E-1,-3.4042552E-1,-6.453674E-1,-0E0,-7.561601E-2,-4.0958673E-2,9.264706E-1,-3.6363637E-1,7.167768E-2,2.9761904E-1,-5.833333E-1,-8.333333E-1,4.0958673E-2,-6.143801E-2,5.4611564E-2,3.529412E-1,9.398734E-1,9.5714283E-1,-4.0958673E-2,-5.4611564E-2,5.4611564E-2,-5.263158E-1,4.4117647E-1,8.4375E-1,-0E0,-3.382353E-1,2.9166666E-1,-6.4935064E-1,6.553388E-2,8.035714E-1,-5E-1,1.6793893E-1,-6.5E-1,-2.6785713E-1,-7.380952E-1,7.021487E-2,-4.0958673E-2,8.3333336E-2,-7.5E-1,-5.625E-1,4.6376812E-1,-7.2072074E-2,-5.76E-1,-6.8686867E-1,1.1764706E-1,-5.4611564E-2,5.4611564E-2,7.82494E-2,-4.0958673E-2,3.276694E-2,-7.021487E-2,-1.5603304E-2,3.7118796E-2,5.4611564E-2,-7.372561E-2,-7.7098675E-2,4.0958673E-2,6.3013345E-2,-6.553388E-2,7.749641E-2,-4.0958673E-2,4.0958673E-2,8.065708E-2,1.3652891E-2,-6.436363E-2,5.0845247E-2,-4.0958673E-2,-5.4611564E-2,7.918677E-2,6.143801E-2,-6.143801E-2,6.5533873E-3,-4.6543945E-2,5.529421E-2,-1.4894064E-2,-5.8670532E-2,6.143801E-2,2.9256195E-2,7.6202184E-2,4.0958673E-2,-6.553388E-2,2.227577E-2,-4.0958673E-2,5.4611564E-2,-6.8264455E-2,-3.6779217E-2,7.167768E-2,-2.559917E-2,-7.888337E-2,5.119834E-2,-6.553388E-2,-6.987067E-2,5.4611564E-2,-6.436363E-2,5.4611564E-2,6.0184173E-2,-1.5603304E-2,2.4575206E-2,-3.0388692E-2,-5.8635574E-2,-1.0569979E-2,-3.921575E-2,-6.384735E-2,3.7808005E-2,-6.553388E-2],"categories":[],"categories_nodes":[],"categories_segments":[],"categories_sizes":[],"default_left":[0,0,0,0,0,0,0,0,0,0,0,0,0,0,0,0,0,0,0,0,0,0,0,0,0,0,0,0,0,0,0,0,0,0,0,0,0,0,0,0,0,0,0,0,0,0,0,0,0,0,0,0,0,0,0,0,0,0,0,0,0,0,0,0,0,0,0,0,0,0,0,0,0,0,0,0,0,0,0,0,0,0,0,0,0,0,0,0,0,0,0,0,0,0,0,0,0,0,0,0,0,0,0,0,0,0,0,0,0,0,0,0,0,0,0,0,0,0,0,0,0,0,0,0,0,0,0,0,0,0,0,0,0,0,0,0,0,0,0,0,0,0,0,0,0,0,0,0,0,0,0],"id":7,"left_children":[1,3,5,7,9,11,13,15,17,19,21,23,25,-1,27,29,31,-1,33,-1,35,37,39,41,43,45,47,49,-1,51,53,55,57,59,61,63,65,67,69,71,73,75,77,79,81,83,85,87,89,91,-1,-1,93,95,-1,97,99,101,-1,-1,-1,103,105,107,-1,-1,-1,109,111,113,115,117,119,121,-1,123,125,127,129,131,133,-1,-1,135,137,139,141,143,145,147,149,-1,-1,-1,-1,-1,-1,-1,-1,-1,-1,-1,-1,-1,-1,-1,-1,-1,-1,-1,-1,-1,-1,-1,-1,-1,-1,-1,-1,-1,-1,-1,-1,-1,-1,-1,-1,-1,-1,-1,-1,-1,-1,-1,-1,-1,-1,-1,-1,-1,-1,-1,-1,-1,-1,-1,-1,-1,-1,-1,-1],"loss_changes":[4.457088E2,7.1475296E1,1.2026523E2,3.5500443E1,4.596589E1,4.393129E1,3.4046326E0,2.5224047E1,6.4816284E0,9.445385E0,2.119229E1,2.8229687E1,2.5295982E1,0E0,3.5180664E-1,7.0822372E0,1.35847225E1,0E0,6.064789E0,0E0,3.27211E0,8.159362E0,1.5631685E1,1.7072319E1,8.77597E0,2.0611366E1,1.2216171E1,2.6063347E0,0E0,3.1575012E0,7.0795455E0,8.113283E0,2.6842108E0,3.4166667E0,4.726898E0,3.2764587E0,2.6666667E0,1.1400036E1,3.5970402E0,1.3875634E1,9.544077E0,8.74268E0,1.1604656E1,5.0843773E0,2.517857E0,5.9503555E0,1.3605461E1,1.4814533E1,9.992294E0,2.6666667E0,0E0,0E0,3.2666817E0,4.488312E0,0E0,6.4620533E0,5.35E0,3.0588236E0,0E0,0E0,0E0,8.77466E0,3.275055E0,3.868103E-1,0E0,0E0,0E0,3.5463667E0,6.0547667E0,6.585417E0,4.5E0,6.585133E0,1.319091E1,7.741928E0,0E0,2.834301E0,2.2E0,9.235168E0,5.383333E0,1.1984695E1,3.718584E0,0E0,0E0,6.2416663E0,5.8186283E0,4.9136906E0,1.2370306E1,1.2455682E1,7.7178116E0,5.347809E0,5.7339363E0,0E0,0E0,0E0,0E0,0E0,0E0,0E0,0E0,0E0,0E0,0E0,0E0,0E0,0E0,0E0,0E0,0E0,0E0,0E0,0E0,0E0,0E0,0E0,0E0,0E0,0E0,0E0,0E0,0E0,0E0,0E0,0E0,0E0,0E0,0E0,0E0,0E0,0E0,0E0,0E0,0E0,0E0,0E0,0E0,0E0,0E0,0E0,0E0,0E0,0E0,0E0,0E0,0E0,0E0,0E0,0E0,0E0,0E0,0E0,0E0],"parents":[2147483647,0,0,1,1,2,2,3,3,4,4,5,5,6,6,7,7,8,8,9,9,10,10,11,11,12,12,14,14,15,15,16,16,18,18,20,20,21,21,22,22,23,23,24,24,25,25,26,26,27,27,29,29,30,30,31,31,32,32,33,33,34,34,35,35,36,36,37,37,38,38,39,39,40,40,41,41,42,42,43,43,44,44,45,45,46,46,47,47,48,48,49,49,52,52,53,53,55,55,56,56,57,57,61,61,62,62,63,63,67,67,68,68,69,69,70,70,71,71,72,72,73,73,75,75,76,76,77,77,78,78,79,79,80,80,83,83,84,84,85,85,86,86,87,87,88,88,89,89,90,90],"right_children":[2,4,6,8,10,12,14,16,18,20,22,24,26,-1,28,30,32,-1,34,-1,36,38,40,42,44,46,48,50,-1,52,54,56,58,60,62,64,66,68,70,72,74,76,78,80,82,84,86,88,90,92,-1,-1,94,96,-1,98,100,102,-1,-1,-1,104,106,108,-1,-1,-1,110,112,114,116,118,120,122,-1,124,126,128,130,132,134,-1,-1,136,138,140,142,144,146,148,150,-1,-1,-1,-1,-1,-1,-1,-1,-1,-1,-1,-1,-1,-1,-1,-1,-1,-1,-1,-1,-1,-1,-1,-1,-1,-1,-1,-1,-1,-1,-1,-1,-1,-1,-1,-1,-1,-1,-1,-1,-1,-1,-1,-1,-1,-1,-1,-1,-1,-1,-1,-1,-1,-1,-1,-1,-1,-1,-1,-1],"split_conditions":[1.0980892E1,1.2859564E2,2.3089392E1,1.7888544E0,7.1168814E0,1E0,4.4598207E0,8.095678E0,3.1E1,1.1661904E0,6.4700485E1,1.6219466E2,8.088778E1,7.969041E-5,2.3960384E1,1.4244615E2,1.3966602E2,-1.5328025E-3,-1.7475052E0,-1.1102057E-4,4.5276924E1,3.1827662E0,1.6343262E2,1.4018559E1,1E0,9.2195445E-1,1.3061394E1,9.69E1,-1.9454381E-3,3.26E1,1.133E2,1.5817714E2,4.75E1,3.5014284E0,2.3259406E0,1.5471786E0,-1.0013927E0,-8.7664735E-1,8.410436E-1,1.9104973E0,1.9646883E0,1.148E2,1.111E2,7.920227E0,1.917938E0,9.6009E1,2.9017236E0,3.5252945E1,2.7294688E0,-1.6723328E0,-5.236891E-4,-3.8722318E-4,1E0,1.429495E0,8.473975E-4,1.4E1,8.63E1,1E0,2.510792E-4,-3.395123E-4,3.9401376E-3,1.103685E2,8.376157E0,4.9E0,-1.4242764E-4,-2.0277266E-4,2.940165E-3,8.440379E0,1.953494E0,2.2605019E0,8.761849E0,3.2E1,9.404786E0,7.55E1,1.955104E-3,-7.786869E-1,1.917938E0,6.92E1,1.4326549E1,3.4481878E0,1.9416489E1,1.07924665E-4,-1.1787475E-3,1.2971122E1,1.734802E2,4.3931767E1,1.3411778E2,1.02922134E2,1.3453624E0,7.953349E1,1.3879404E2,-2.8195314E-4,1.2637331E-4,5.1033865E-3,-1.6196923E-4,8.5212267E-4,-1.328085E-4,-2.8694138E-5,4.3804428E-4,8.5037894E-4,-6.3500996E-4,-4.6439964E-4,3.8770624E-4,3.813842E-3,-3.3024763E-4,5.3716167E-3,-4.8910035E-4,4.2664283E-3,6.5219053E-3,3.0293452E-4,-3.5245623E-4,4.2136115E-4,-1.9055352E-4,-3.7570592E-4,1.401442E-3,1.5502695E-3,-1.2518698E-4,1.9096732E-4,-1.910723E-4,1.4826467E-3,-1.5708995E-4,-2.2622832E-4,2.7678919E-3,7.3871936E-4,3.284024E-3,1.451195E-3,-2.4694488E-3,1.614706E-4,-5.131035E-4,1.1852927E-3,-2.629341E-3,-6.916768E-4,4.4143712E-4,-9.064382E-4,-9.310836E-4,5.537119E-4,-1.4810127E-3,-1.399522E-3,5.622712E-5,-8.4116566E-4,7.90011E-4,1.2235553E-3,-1.1023416E-4,2.342551E-4,-4.4118628E-4,-8.214355E-4,-1.3255155E-4,-1.3799279E-3,-1.718718E-3,7.107793E-4,-2.7180521E-3],"split_indices":[72,77,72,74,72,34,76,72,7,75,78,77,77,0,72,78,79,0,3,0,4,75,77,72,59,73,72,6,0,7,6,78,7,74,75,3,3,3,3,74,73,6,6,75,2,78,76,4,73,3,0,0,30,2,0,9,8,13,0,0,0,79,75,9,0,0,0,72,2,78,72,4,72,9,0,3,2,9,72,73,72,0,0,72,78,4,78,80,73,78,80,0,0,0,0,0,0,0,0,0,0,0,0,0,0,0,0,0,0,0,0,0,0,0,0,0,0,0,0,0,0,0,0,0,0,0,0,0,0,0,0,0,0,0,0,0,0,0,0,0,0,0,0,0,0,0,0,0,0,0,0],"split_type":[0,0,0,0,0,0,0,0,0,0,0,0,0,0,0,0,0,0,0,0,0,0,0,0,0,0,0,0,0,0,0,0,0,0,0,0,0,0,0,0,0,0,0,0,0,0,0,0,0,0,0,0,0,0,0,0,0,0,0,0,0,0,0,0,0,0,0,0,0,0,0,0,0,0,0,0,0,0,0,0,0,0,0,0,0,0,0,0,0,0,0,0,0,0,0,0,0,0,0,0,0,0,0,0,0,0,0,0,0,0,0,0,0,0,0,0,0,0,0,0,0,0,0,0,0,0,0,0,0,0,0,0,0,0,0,0,0,0,0,0,0,0,0,0,0,0,0,0,0,0,0],"sum_hessian":[2.238E3,9.18E2,1.32E3,5.35E2,3.83E2,9.87E2,3.33E2,1.97E2,3.38E2,7.7E1,3.06E2,3.12E2,6.75E2,1E0,3.32E2,8.5E1,1.12E2,2E0,3.36E2,3E0,7.4E1,8.8E1,2.18E2,2.09E2,1.03E2,1.29E2,5.46E2,1.6E1,3.16E2,6.8E1,1.7E1,9.4E1,1.8E1,5E0,3.31E2,7E1,4E0,5.1E1,3.7E1,1.38E2,8E1,6E1,1.49E2,9.6E1,7E0,4.6E1,8.3E1,2.34E2,3.12E2,4E0,1.2E1,1E0,6.7E1,1E1,7E0,8.3E1,1.1E1,1.7E1,1E0,3E0,2E0,1.6E1,3.15E2,6.9E1,1E0,2E0,2E0,1.8E1,3.3E1,3.1E1,6E0,6.7E1,7.1E1,7.6E1,4E0,5.5E1,5E0,1.3E2,1.9E1,5.5E1,4.1E1,6E0,1E0,1.1E1,3.5E1,1.5E1,6.8E1,1.1E2,1.24E2,2.96E2,1.6E1,2E0,2E0,6.6E1,1E0,4E0,6E0,2E1,6.3E1,2E0,9E0,1.6E1,1E0,1.2E1,4E0,3.14E2,1E0,5E0,6.4E1,5E0,1.3E1,2.8E1,5E0,2E0,2.9E1,3E0,3E0,2.4E1,4.3E1,3.9E1,3.2E1,7.3E1,3E0,1.3E1,4.2E1,1E0,4E0,1.13E2,1.7E1,2E0,1.7E1,4.8E1,7E0,1.5E1,2.6E1,7E0,4E0,3.3E1,2E0,1.3E1,2E0,4.8E1,2E1,4.9E1,6.1E1,9.4E1,3E1,9.3E1,2.03E2,1.2E1,4E0],"tree_param":{"num_deleted":"0","num_feature":"85","num_nodes":"151","size_leaf_vector":"1"}},{"base_weights":[-9.2898615E-2,5.2228415E-1,-3.8304862E-1,7.029126E-1,6.3725494E-2,-2.2636816E-1,-9.7791797E-1,3.4437087E-1,8.4931505E-1,7.8431374E-1,-1.7532468E-1,-3.9235127E-1,7.984032E-3,-7.407407E-1,-8.163584E-2,6.516854E-1,-9.52381E-2,8.595041E-1,-5.4611564E-2,-5.4611564E-2,8.5714287E-1,-3.4234235E-1,2.5E-1,-3.1028667E-1,-8.1578946E-1,2.9646018E-1,-2.2826087E-1,2.5E-1,-8.75E-1,7.093023E-1,-6.143801E-2,2.857143E-1,-5.5172414E-1,5.0980395E-1,9.13738E-1,9.3333334E-1,-0E0,-8.076923E-1,-1.9767442E-1,4.848485E-1,-4.1666666E-1,3.409091E-1,-3.618182E-1,-8.4821427E-1,5.4611564E-2,4.3085107E-1,-3.5897437E-1,2.8125E-1,-2.9387754E-1,5.4611564E-2,-4.0958673E-2,4.0958673E-2,-7.835572E-2,7.1428575E-2,8.2191783E-1,-0E0,7.447032E-2,-6.666667E-1,5.4611564E-2,6.041667E-1,-6.143801E-2,9.198718E-1,-4.0958673E-2,-4.0958673E-2,8.005559E-2,5.4611564E-2,-5.4611564E-2,5.4611564E-2,-7.850412E-2,7.2727275E-1,-3.2894737E-1,6.666667E-1,-2.857143E-1,-7E-1,5.4611564E-2,7.307692E-1,-2.1052632E-1,-2.019544E-1,-5.614754E-1,-8.8073397E-1,2.5E-1,-2.173913E-2,5.7342654E-1,6.553388E-2,-5.1428574E-1,-1.875E-1,7.058824E-1,-9.016393E-2,-4.919355E-1,7.167768E-2,-7.021487E-2,2.1844627E-2,7.7752054E-2,5.119834E-2,-2.275482E-2,-6.485123E-2,2.0479336E-2,5.9939522E-2,-1.0239668E-2,-0E0,7.583961E-2,7.372561E-2,-4.0958673E-2,-4.2421483E-2,1.5603304E-2,6.485123E-2,-2.0479336E-2,5.4611564E-2,-6.553388E-2,-7.281542E-2,4.0958673E-2,7.801652E-2,-1.3652891E-2,1.8203855E-2,-4.468219E-2,3.4370914E-3,-3.3759877E-2,5.649472E-3,-5.2715328E-2,-7.357391E-2,4.0958673E-2,-4.0958673E-2,5.4611564E-2,2.3039253E-2,-5.4611564E-2,5.1643547E-2,-6.8264455E-2,2.3404958E-2,-5.649472E-2,-7.021487E-2,2.4575206E-2,7.645619E-2,-5.4611564E-2,2.4010258E-2,-3.5287473E-2,-6.143801E-2,-1.4371464E-2],"categories":[],"categories_nodes":[],"categories_segments":[],"categories_sizes":[],"default_left":[0,0,0,0,0,0,0,0,0,0,0,0,0,0,0,0,0,0,0,0,0,0,0,0,0,0,0,0,0,0,0,0,0,0,0,0,0,0,0,0,0,0,0,0,0,0,0,0,0,0,0,0,0,0,0,0,0,0,0,0,0,0,0,0,0,0,0,0,0,0,0,0,0,0,0,0,0,0,0,0,0,0,0,0,0,0,0,0,0,0,0,0,0,0,0,0,0,0,0,0,0,0,0,0,0,0,0,0,0,0,0,0,0,0,0,0,0,0,0,0,0,0,0,0,0,0,0,0,0,0,0,0,0,0,0,0,0],"id":8,"left_children":[1,3,5,7,9,11,13,15,17,19,21,23,25,27,-1,29,31,33,-1,-1,35,37,39,41,43,45,47,49,51,53,-1,55,57,59,61,63,65,67,69,71,73,75,77,79,-1,81,83,85,87,-1,-1,-1,-1,89,91,93,-1,95,-1,97,-1,99,-1,-1,-1,-1,-1,-1,-1,101,103,105,107,109,-1,111,113,115,117,119,121,123,125,-1,127,129,131,133,135,-1,-1,-1,-1,-1,-1,-1,-1,-1,-1,-1,-1,-1,-1,-1,-1,-1,-1,-1,-1,-1,-1,-1,-1,-1,-1,-1,-1,-1,-1,-1,-1,-1,-1,-1,-1,-1,-1,-1,-1,-1,-1,-1,-1,-1,-1,-1,-1],"loss_changes":[3.9985098E2,5.9426254E1,1.4163571E2,2.674057E1,3.5277885E1,4.6914734E1,6.636963E-1,2.0461897E1,6.210968E0,5.960783E0,1.1025244E1,2.4279877E1,3.421133E1,3.8101854E0,0E0,7.7196884E0,1.11133E1,6.418701E0,0E0,0E0,3.2000008E0,7.312993E0,7.090909E0,2.0022705E1,6.045273E0,2.0061749E1,9.3099985E0,1.5833334E0,3.168478E0,6.1190567E0,0E0,6.233766E0,4.505747E0,6.515932E0,3.1741333E0,3.3227272E0,2.6666667E0,6.4134617E0,1.0681401E1,4.8138523E0,4.1500006E0,9.613083E0,1.744149E1,4.2201004E0,0E0,1.2143784E1,7.431502E0,6.5018387E0,9.840685E0,0E0,0E0,0E0,0E0,1.1196428E1,4.9041405E0,4.513889E0,0E0,3.291667E0,0E0,4.5553856E0,0E0,1.7032471E0,0E0,0E0,0E0,0E0,0E0,0E0,0E0,2.7818184E0,7.556078E0,3.291667E0,3.9619048E0,2.711111E0,0E0,5.32967E0,2.8750663E0,1.5754819E1,1.2664871E1,3.0699081E0,1.5833334E0,9.176177E0,1.1993515E1,0E0,5.1073885E0,5.480357E0,5.929411E0,1.6052492E1,9.996323E0,0E0,0E0,0E0,0E0,0E0,0E0,0E0,0E0,0E0,0E0,0E0,0E0,0E0,0E0,0E0,0E0,0E0,0E0,0E0,0E0,0E0,0E0,0E0,0E0,0E0,0E0,0E0,0E0,0E0,0E0,0E0,0E0,0E0,0E0,0E0,0E0,0E0,0E0,0E0,0E0,0E0,0E0,0E0,0E0,0E0,0E0,0E0,0E0],"parents":[2147483647,0,0,1,1,2,2,3,3,4,4,5,5,6,6,7,7,8,8,9,9,10,10,11,11,12,12,13,13,15,15,16,16,17,17,20,20,21,21,22,22,23,23,24,24,25,25,26,26,27,27,28,28,29,29,31,31,32,32,33,33,34,34,35,35,36,36,37,37,38,38,39,39,40,40,41,41,42,42,43,43,45,45,46,46,47,47,48,48,53,53,54,54,55,55,57,57,59,59,61,61,69,69,70,70,71,71,72,72,73,73,75,75,76,76,77,77,78,78,79,79,80,80,81,81,82,82,84,84,85,85,86,86,87,87,88,88],"right_children":[2,4,6,8,10,12,14,16,18,20,22,24,26,28,-1,30,32,34,-1,-1,36,38,40,42,44,46,48,50,52,54,-1,56,58,60,62,64,66,68,70,72,74,76,78,80,-1,82,84,86,88,-1,-1,-1,-1,90,92,94,-1,96,-1,98,-1,100,-1,-1,-1,-1,-1,-1,-1,102,104,106,108,110,-1,112,114,116,118,120,122,124,126,-1,128,130,132,134,136,-1,-1,-1,-1,-1,-1,-1,-1,-1,-1,-1,-1,-1,-1,-1,-1,-1,-1,-1,-1,-1,-1,-1,-1,-1,-1,-1,-1,-1,-1,-1,-1,-1,-1,-1,-1,-1,-1,-1,-1,-1,-1,-1,-1,-1,-1,-1,-1],"split_conditions":[1.0012992E1,1.4695355E2,2.3960384E1,2.4020824E0,7.1168814E0,1.4035668E0,2.5100199E1,8.127115E0,8.376157E0,8.062258E-1,2.5612497E0,1.6829356E2,1.4221462E1,8.95754E-1,-1.8066783E-3,1.7117963E2,9.27E1,8E-1,-2.9179963E-4,-1.9631445E-4,1.149E2,3.62E1,1.156E2,1E0,1.765995E2,1.568014E2,5.91E1,2E0,9.56E1,7.5E0,-8.712486E-5,1.118034E0,1E0,2.102124E0,4.9E1,1.4441255E0,-1.6163673E0,8E0,3.71E1,9.563472E0,1E0,1.147492E2,1.2971122E1,1E0,8.1182974E-5,3.1622777E0,2.299413E1,-4.7583103E-2,1E0,4.168313E-4,-2.6234512E-3,1.4308924E-5,-1.0097807E-3,9.187349E1,1.4422206E0,5.5491478E1,8.135939E-4,1E0,9.900653E-4,1.4561798E2,-2.0571354E-4,-1.7126933E0,-4.8045805E-4,-7.619016E-5,5.2824626E-3,6.8662716E-3,-2.5636805E-4,2.0842503E-3,-2.9534657E-4,3.9199615E1,1.264911E0,1.106E2,-7.889317E-1,1E0,1.7707453E-3,1.4244615E2,1.2013698E2,3.4973846E1,1E0,1.4034271E0,2E0,4.17E1,1.149E2,1.873199E-3,3.5E0,2.67E1,5.47E1,1.9416489E1,4.37E1,2.7453639E-3,-4.4305448E-4,4.81322E-4,3.7567748E-3,3.5721567E-3,-6.711025E-5,-2.3210369E-4,3.1554946E-4,2.0785641E-3,-5.3122058E-5,1.4620522E-3,5.436858E-3,3.5799316E-5,-1.9865017E-4,-1.1493219E-4,2.6961468E-4,1.5571059E-3,-3.5138022E-5,1.1965323E-3,-1.4123016E-4,-2.8186495E-4,1.4232754E-3,2.3802738E-3,-5.0877134E-4,8.813161E-5,-4.0981444E-4,1.7278799E-5,-3.646052E-4,4.4368222E-5,-1.3373889E-3,-1.391866E-3,3.4503185E-4,-2.9977506E-3,1.3913746E-3,3.8565186E-4,-8.880721E-4,1.9691978E-3,-2.6242966E-3,2.0381434E-4,-8.7461335E-4,-1.6387018E-3,2.4543089E-4,1.2111674E-3,-1.828415E-3,1.4889044E-4,-3.3017667E-4,-1.3129452E-3,-2.0182299E-4],"split_indices":[72,77,72,75,72,73,72,72,75,74,74,77,72,2,0,80,8,73,0,0,8,7,6,42,80,77,8,0,6,9,0,73,19,2,7,78,3,9,7,72,60,79,72,11,0,75,4,3,46,0,0,0,0,78,75,77,0,13,0,78,0,3,0,0,0,0,0,0,0,4,73,8,3,21,0,78,77,4,34,3,0,7,6,0,76,7,7,72,7,0,0,0,0,0,0,0,0,0,0,0,0,0,0,0,0,0,0,0,0,0,0,0,0,0,0,0,0,0,0,0,0,0,0,0,0,0,0,0,0,0,0,0,0,0,0,0,0],"split_type":[0,0,0,0,0,0,0,0,0,0,0,0,0,0,0,0,0,0,0,0,0,0,0,0,0,0,0,0,0,0,0,0,0,0,0,0,0,0,0,0,0,0,0,0,0,0,0,0,0,0,0,0,0,0,0,0,0,0,0,0,0,0,0,0,0,0,0,0,0,0,0,0,0,0,0,0,0,0,0,0,0,0,0,0,0,0,0,0,0,0,0,0,0,0,0,0,0,0,0,0,0,0,0,0,0,0,0,0,0,0,0,0,0,0,0,0,0,0,0,0,0,0,0,0,0,0,0,0,0,0,0,0,0,0,0,0,0],"sum_hessian":[2.238E3,7.17E2,1.521E3,5.14E2,2.03E2,1.205E3,3.16E2,1.5E2,3.64E2,5E1,1.53E2,7.05E2,5E2,2.6E1,2.9E2,8.8E1,6.2E1,3.62E2,2E0,2E0,4.8E1,1.1E2,4.3E1,5.92E2,1.13E2,2.25E2,2.75E2,3E0,2.3E1,8.5E1,3E0,3.4E1,2.8E1,5E1,3.12E2,4.4E1,4E0,2.5E1,8.5E1,3.2E1,1.1E1,4.3E1,5.49E2,1.11E2,2E0,1.87E2,3.8E1,3.1E1,2.44E2,2E0,1E0,1E0,2.2E1,1.3E1,7.2E1,2.4E1,1E1,2.6E1,2E0,4.7E1,3E0,3.11E2,1E0,1E0,4.3E1,2E0,2E0,2E0,2.3E1,1E1,7.5E1,2.6E1,6E0,9E0,2E0,2.5E1,1.8E1,3.06E2,2.43E2,1.08E2,3E0,4.5E1,1.42E2,4E0,3.4E1,1.5E1,1.6E1,1.21E2,1.23E2,7E0,6E0,1.4E1,5.8E1,7E0,1.7E1,2.3E1,3E0,4E1,7E0,2E0,3.09E2,9E0,1E0,5.5E1,2E1,2.3E1,3E0,2E0,4E0,8E0,1E0,2E1,5E0,8E0,1E1,1.42E2,1.64E2,2.8E1,2.15E2,1.07E2,1E0,1E0,2E0,3.1E1,1.4E1,1.37E2,5E0,6E0,2.8E1,6E0,9E0,1.4E1,2E0,5.7E1,6.4E1,6.7E1,5.6E1],"tree_param":{"num_deleted":"0","num_feature":"85","num_nodes":"137","size_leaf_vector":"1"}},{"base_weights":[-9.557838E-2,3.5487077E-1,-4.6272284E-1,5.961872E-1,3.0232558E-2,-2.8412876E-1,-9.4311374E-1,2.2564103E-1,7.832898E-1,5.032258E-1,-2.3550725E-1,3.6666665E-2,-4.435216E-1,-6.792453E-1,-8.104588E-2,8.717949E-1,6.369427E-2,9.072581E-1,5.514706E-1,1.5853658E-1,8.783784E-1,-3.4051725E-1,3.1111112E-1,2.4043716E-1,-2.7966103E-1,-2.8482974E-1,-6.25E-1,4E-1,-7.755102E-1,9.2105263E-1,-4.0958673E-2,2.4166666E-1,-5E-1,-0E0,9.2975205E-1,-4.4444445E-1,6.171875E-1,7.7098675E-2,-4.5454547E-2,9.305556E-1,-5.4611564E-2,-4.9382716E-2,-4.9342105E-1,6.785714E-1,-2.777778E-1,3.4756097E-1,-6.5E-1,1.8E-1,-6.086956E-1,-1.733871E-1,-6.447368E-1,-7.630058E-1,-3.9814815E-1,6.143801E-2,-4.0958673E-2,-1.25E-1,-8.8095236E-1,-0E0,7.964186E-2,-3E-1,4.1758242E-1,3.75E-1,-7.096774E-1,6.143801E-2,-6.143801E-2,9.531915E-1,1.25E-1,-7.021487E-2,5.4611564E-2,8.1707317E-1,2.5531915E-1,-2.826087E-1,4.7619048E-1,9.577465E-1,-4.0958673E-2,7.447032E-2,-1.971831E-1,-5.801527E-1,4.5454547E-2,-0E0,8.636364E-1,4.4444445E-1,-7.372561E-2,-1.388889E-1,4.8062015E-1,-7.606611E-2,-0E0,3.9473686E-1,-4.6153846E-1,-2.647059E-1,-9.166667E-1,-1.7441861E-2,-5.194805E-1,-7.65625E-1,-0E0,-8.75E-1,-5.857143E-1,6.896552E-2,-5.625E-1,-6.143801E-2,4E-1,-9.268293E-1,4.0958673E-2,4.0958673E-2,-4.0958673E-2,-4.0958673E-2,6.553388E-2,4.0958673E-2,-6.8264455E-2,-5.4611564E-2,6.8264455E-2,-6.728925E-2,2.0479336E-2,7.875316E-2,-0E0,6.553388E-2,-6.143801E-2,-5.4611564E-2,7.0653714E-2,-6.8264455E-2,3.315702E-2,6.0679517E-3,-6.143801E-2,5.9162527E-2,-6.143801E-2,8.0712676E-2,2.0479336E-2,2.205467E-2,-3.739705E-2,5.4611564E-2,-4.953142E-2,5.7342142E-2,-3.7808005E-2,-6.143801E-2,6.143801E-2,7.801652E-2,-4.0958673E-2,6.8264455E-2,-2.0479336E-2,1.3106775E-2,-6.143801E-2,5.4611564E-2,-0E0,-6.143801E-2,6.143801E-2,5.698598E-2,-5.119834E-3,-5.9576254E-2,5.4611564E-2,-0E0,-7.372561E-2,-7.950801E-2,-0E0,-1.47195235E-2,3.640771E-2,1.8203855E-2,-4.986273E-2,-6.501377E-2,4.0958673E-2,-6.553388E-2,3.640771E-2,-7.746532E-2,-2.5205338E-2,-5.1800676E-2,5.4611564E-2,-1.5603304E-2,5.4611564E-2,-6.5533873E-3,-6.290082E-2,-4.0958673E-2,6.143801E-2,-0E0,-7.98169E-2],"categories":[],"categories_nodes":[],"categories_segments":[],"categories_sizes":[],"default_left":[0,0,0,0,0,0,0,0,0,0,0,0,0,0,0,0,0,0,0,0,0,0,0,0,0,0,0,0,0,0,0,0,0,0,0,0,0,0,0,0,0,0,0,0,0,0,0,0,0,0,0,0,0,0,0,0,0,0,0,0,0,0,0,0,0,0,0,0,0,0,0,0,0,0,0,0,0,0,0,0,0,0,0,0,0,0,0,0,0,0,0,0,0,0,0,0,0,0,0,0,0,0,0,0,0,0,0,0,0,0,0,0,0,0,0,0,0,0,0,0,0,0,0,0,0,0,0,0,0,0,0,0,0,0,0,0,0,0,0,0,0,0,0,0,0,0,0,0,0,0,0,0,0,0,0,0,0,0,0,0,0,0,0,0,0,0,0,0,0,0,0,0,0],"id":9,"left_children":[1,3,5,7,9,11,13,15,17,19,21,23,25,27,-1,29,31,33,35,37,39,41,43,45,47,49,51,53,55,57,-1,59,61,63,65,67,69,-1,71,73,-1,75,77,79,81,83,85,87,89,91,93,95,97,-1,-1,99,101,103,-1,105,107,109,111,-1,-1,113,115,-1,-1,117,119,121,123,125,-1,-1,127,129,131,133,135,137,-1,139,141,-1,143,145,147,149,151,153,155,157,159,161,163,165,167,-1,169,171,-1,-1,-1,-1,-1,-1,-1,-1,-1,-1,-1,-1,-1,-1,-1,-1,-1,-1,-1,-1,-1,-1,-1,-1,-1,-1,-1,-1,-1,-1,-1,-1,-1,-1,-1,-1,-1,-1,-1,-1,-1,-1,-1,-1,-1,-1,-1,-1,-1,-1,-1,-1,-1,-1,-1,-1,-1,-1,-1,-1,-1,-1,-1,-1,-1,-1,-1,-1,-1,-1,-1],"loss_changes":[3.7044986E2,7.879255E1,1.0560306E2,3.982675E1,5.416656E1,4.608664E1,3.4039001E0,2.0349762E1,1.0506424E1,1.9903954E1,1.5948445E1,1.9404715E1,1.7159065E1,5.816557E0,0E0,3.0958176E0,1.587139E1,5.061142E0,9.175297E0,1.31342125E1,6.5859604E0,1.0303251E1,9.92619E0,1.768174E1,1.7956406E1,1.2843418E1,8.462135E0,1.95E0,3.2508507E0,1.7909355E0,0E0,1.1559799E1,7.2379036E0,4.5E0,4.4456787E0,4.698413E0,9.049923E0,0E0,8.299454E0,3.279541E0,0E0,1.1653942E1,7.130478E0,3.5162325E0,8.48889E0,1.0681919E1,3.6214285E0,7.070283E0,7.067137E0,1.3375902E1,5.923519E0,2.9225159E0,8.330061E0,0E0,0E0,2.925E0,3.1242752E0,1E0,0E0,7E0,9.798534E0,4.375E0,3.529953E0,0E0,0E0,1.8327484E0,5.325E0,0E0,0E0,6.1019287E0,7.983789E0,7.7242355E0,6.8769846E0,1.1379471E0,0E0,0E0,8.71101E0,4.404522E0,7.6237764E0,4.5E0,3.1385288E0,2.6388888E0,0E0,6.6955557E0,1.1534882E1,0E0,4.5E0,5.2718825E0,4.3822846E0,5.7176476E0,1.7794113E0,1.2969377E1,5.230442E0,2.666916E0,4.977778E0,3.8775024E0,4.5102253E0,4.623974E0,7.8653564E0,0E0,1.95E0,1.8061295E0,0E0,0E0,0E0,0E0,0E0,0E0,0E0,0E0,0E0,0E0,0E0,0E0,0E0,0E0,0E0,0E0,0E0,0E0,0E0,0E0,0E0,0E0,0E0,0E0,0E0,0E0,0E0,0E0,0E0,0E0,0E0,0E0,0E0,0E0,0E0,0E0,0E0,0E0,0E0,0E0,0E0,0E0,0E0,0E0,0E0,0E0,0E0,0E0,0E0,0E0,0E0,0E0,0E0,0E0,0E0,0E0,0E0,0E0,0E0,0E0,0E0,0E0,0E0,0E0,0E0,0E0,0E0,0E0,0E0,0E0,0E0],"parents":[2147483647,0,0,1,1,2,2,3,3,4,4,5,5,6,6,7,7,8,8,9,9,10,10,11,11,12,12,13,13,15,15,16,16,17,17,18,18,19,19,20,20,21,21,22,22,23,23,24,24,25,25,26,26,27,27,28,28,29,29,31,31,32,32,33,33,34,34,35,35,36,36,38,38,39,39,41,41,42,42,43,43,44,44,45,45,46,46,47,47,48,48,49,49,50,50,51,51,52,52,55,55,56,56,57,57,59,59,60,60,61,61,62,62,65,65,66,66,69,69,70,70,71,71,72,72,73,73,76,76,77,77,78,78,79,79,80,80,81,81,83,83,84,84,86,86,87,87,88,88,89,89,90,90,91,91,92,92,93,93,94,94,95,95,96,96,97,97,98,98,100,100,101,101],"right_children":[2,4,6,8,10,12,14,16,18,20,22,24,26,28,-1,30,32,34,36,38,40,42,44,46,48,50,52,54,56,58,-1,60,62,64,66,68,70,-1,72,74,-1,76,78,80,82,84,86,88,90,92,94,96,98,-1,-1,100,102,104,-1,106,108,110,112,-1,-1,114,116,-1,-1,118,120,122,124,126,-1,-1,128,130,132,134,136,138,-1,140,142,-1,144,146,148,150,152,154,156,158,160,162,164,166,168,-1,170,172,-1,-1,-1,-1,-1,-1,-1,-1,-1,-1,-1,-1,-1,-1,-1,-1,-1,-1,-1,-1,-1,-1,-1,-1,-1,-1,-1,-1,-1,-1,-1,-1,-1,-1,-1,-1,-1,-1,-1,-1,-1,-1,-1,-1,-1,-1,-1,-1,-1,-1,-1,-1,-1,-1,-1,-1,-1,-1,-1,-1,-1,-1,-1,-1,-1,-1,-1,-1,-1,-1,-1],"split_conditions":[1.1469089E1,1.2760987E2,2.3089392E1,1.7E0,8.29759E0,1E0,2.5747427E1,6.88767E0,1.1315736E2,2.0518284E0,1.456022E0,1.8094198E1,1.4059933E2,4.4407206E0,-1.6842376E-3,1.642372E0,1.4244615E2,5.0990194E-1,2.3259406E0,6.2128897E0,1.6941374E2,7.494519E1,3.7669086E1,1.132E2,1.013E2,1.353064E2,8.59E1,1.31635E0,9.61E1,1.134E2,-2.4996445E-4,2.1931713E0,8.44E1,1.480843E0,1.7537878E2,1.407483E0,1.2181703E2,3.8396008E-3,9.486833E-1,4.76E1,-3.41314E-4,2.731172E1,3.6235342E0,2.8653097E0,2E0,2.4207437E0,1E0,1.7341806E2,1.9723083E1,6.295106E-1,9.18E1,3.5341194E0,9.063149E1,6.952778E-5,-7.822004E-4,1.0140019E1,1E0,1.310498E0,7.033648E-3,4.35E1,1.6084439E2,4.5036564E1,1E0,1.0001141E-3,-5.0531566E-4,1.26895424E2,8.836288E0,-2.5341677E-4,7.9744775E-4,4.3E0,3.35E1,9.130299E-1,1E0,1E0,-1.9589758E-4,6.1138277E-4,1.5162811E2,1.0813742E1,1.118E2,1E0,1E0,1.02859125E1,-1.734002E-3,1.3584253E2,6.4E1,-2.2583494E-3,1.602761E0,4.17E1,2.1421337E0,1.073E2,1E0,8.62E1,4.526732E1,7.57E1,9.055385E-1,2.308251E0,1.7174718E2,9.33E1,1.09363846E2,-1.580683E-4,-2.3561945E0,6.27275E-1,2.0773344E-4,1.1177091E-3,-2.3023362E-4,-1.0346711E-4,1.518006E-3,7.609745E-4,-5.367947E-4,-9.0799E-4,4.7023562E-4,-2.1764675E-4,4.6469623E-4,4.9241143E-3,2.6272616E-4,1.0200741E-2,-8.127251E-4,-4.3405576E-5,3.918379E-3,-2.7633138E-4,8.160282E-4,4.2628013E-5,-1.4455953E-4,9.929292E-4,-2.7091894E-4,4.3343287E-3,6.383589E-3,1.4492328E-4,-1.2513144E-4,1.6088577E-3,-2.7370648E-4,2.1311326E-3,-3.9737177E-4,-3.3506178E-4,3.0567485E-3,1.9563367E-3,-6.9274305E-4,1.3066843E-3,-2.8206973E-4,2.3930667E-4,-3.5039452E-4,2.0624865E-3,-2.5945661E-5,-1.1174598E-3,5.5384357E-3,1.09891305E-4,-1.0210027E-4,-2.1851648E-4,1.025346E-3,5.2601445E-6,-2.7509744E-3,-1.1957114E-3,-3.2449403E-4,-3.724156E-4,1.4345345E-4,1.2000206E-4,-7.4797246E-4,-1.3998183E-3,1.2197857E-3,-9.956358E-4,7.378319E-4,-1.459066E-3,-1.0217074E-3,-1.4330142E-3,6.189678E-4,-1.1039361E-4,5.380615E-4,-3.7070882E-4,-1.0317658E-3,-1.7438583E-4,1.260326E-4,-2.5012082E-4,-6.651823E-4],"split_indices":[72,77,72,74,72,34,72,72,79,74,73,72,77,75,0,3,78,73,75,72,80,78,4,6,6,80,8,2,6,6,0,76,8,2,78,2,78,0,73,7,0,4,74,75,0,74,35,80,72,3,8,75,79,0,0,4,61,2,0,7,79,77,27,0,0,77,72,0,0,9,7,3,48,11,0,0,77,79,6,81,17,72,0,78,9,0,2,7,3,6,28,8,79,9,73,2,79,8,80,0,3,2,0,0,0,0,0,0,0,0,0,0,0,0,0,0,0,0,0,0,0,0,0,0,0,0,0,0,0,0,0,0,0,0,0,0,0,0,0,0,0,0,0,0,0,0,0,0,0,0,0,0,0,0,0,0,0,0,0,0,0,0,0,0,0,0,0,0,0,0,0,0,0],"split_type":[0,0,0,0,0,0,0,0,0,0,0,0,0,0,0,0,0,0,0,0,0,0,0,0,0,0,0,0,0,0,0,0,0,0,0,0,0,0,0,0,0,0,0,0,0,0,0,0,0,0,0,0,0,0,0,0,0,0,0,0,0,0,0,0,0,0,0,0,0,0,0,0,0,0,0,0,0,0,0,0,0,0,0,0,0,0,0,0,0,0,0,0,0,0,0,0,0,0,0,0,0,0,0,0,0,0,0,0,0,0,0,0,0,0,0,0,0,0,0,0,0,0,0,0,0,0,0,0,0,0,0,0,0,0,0,0,0,0,0,0,0,0,0,0,0,0,0,0,0,0,0,0,0,0,0,0,0,0,0,0,0,0,0,0,0,0,0,0,0,0,0,0,0],"sum_hessian":[2.238E3,1.005E3,1.233E3,5.76E2,4.29E2,9E2,3.33E2,1.94E2,3.82E2,1.54E2,2.75E2,2.99E2,6.01E2,5.2E1,2.81E2,3.8E1,1.56E2,2.47E2,1.35E2,8.1E1,7.3E1,2.31E2,4.4E1,1.82E2,1.17E2,3.22E2,2.79E2,4E0,4.8E1,3.7E1,1E0,1.19E2,3.7E1,6E0,2.41E2,8E0,1.27E2,1.6E1,6.5E1,7.1E1,2E0,8E1,1.51E2,2.7E1,1.7E1,1.63E2,1.9E1,4.9E1,6.8E1,2.47E2,7.5E1,1.72E2,1.07E2,3E0,1E0,7E0,4.1E1,2E0,3.5E1,2.9E1,9E1,7E0,3E1,3E0,3E0,2.34E2,7E0,6E0,2E0,8.1E1,4.6E1,4.5E1,2E1,7E1,1E0,1E1,7E1,1.3E2,2.1E1,6E0,2.1E1,8E0,9E0,3.5E1,1.28E2,1.3E1,6E0,3.7E1,1.2E1,3.3E1,3.5E1,1.71E2,7.6E1,6.3E1,1.2E1,1.03E2,6.9E1,2.8E1,7.9E1,3E0,4E0,4E1,1E0,1E0,1E0,2.5E1,4E0,8.5E1,5E0,2E0,5E0,2.7E1,3E0,2.32E2,2E0,4E0,3E0,2E0,7.9E1,5E0,4.1E1,2.6E1,1.9E1,1.7E1,3E0,6.7E1,3E0,2.5E1,4.5E1,2E0,1.28E2,9E0,1.2E1,3E0,3E0,2E1,1E0,5E0,3E0,2.4E1,1.1E1,9.2E1,3.6E1,3E0,3E0,2.2E1,1.5E1,1E1,2E0,2.4E1,9E0,3.3E1,2E0,1.27E2,4.4E1,8E0,6.8E1,6.2E1,1E0,4E0,8E0,9.1E1,1.2E1,6.7E1,2E0,2E1,8E0,2.4E1,5.5E1,1E0,3E0,2E0,3.8E1],"tree_param":{"num_deleted":"0","num_feature":"85","num_nodes":"173","size_leaf_vector":"1"}},{"base_weights":[-1.0808396E-1,4.5809248E-1,-3.611111E-1,2.5330397E-1,8.4518826E-1,-2.1185064E-1,-9.400631E-1,8.224299E-1,7.7586204E-2,9.186603E-1,3.2258064E-1,2.3809524E-2,-3.988355E-1,-6.388889E-1,-9.751773E-1,2.1428572E-1,9.0425533E-1,2.80543E-1,-2.734375E-1,9.3719804E-1,-5.4611564E-2,8.4210527E-1,-4.6153846E-1,5.595238E-1,-7.343412E-2,-5.946745E-1,-2.0857143E-1,-7.352941E-1,5.4611564E-2,-8.0438696E-2,-5E-1,5.4545456E-1,-6.143801E-2,-2.5E-1,9.4505495E-1,1.6528925E-2,5.940594E-1,-4.516129E-1,1.9444445E-1,9.466019E-1,-4.0958673E-2,7.736638E-2,-4.0958673E-2,5.4611564E-2,-7.2727275E-1,-4.1666666E-1,7.123288E-1,-2.5E-1,2.2674419E-1,-6.424051E-1,8.695652E-2,-1.4240506E-1,-8E-1,-2.5E-1,-7.835572E-2,4.0958673E-2,-6.553388E-2,7.281542E-2,-5.4611564E-2,4.0958673E-2,-5.4611564E-2,7.918677E-2,-4.0958673E-2,4.2553192E-1,-2.4E-1,7.3255813E-1,-1.875E-1,-7.782148E-2,-3.108108E-1,5.5E-1,-2.3529412E-1,-0E0,9.558824E-1,4.0958673E-2,-7.372561E-2,-7.281542E-2,6.143801E-2,8.088235E-1,-5E-1,-9.836066E-2,-5E-1,3.8938054E-1,-8.3333336E-2,-4.1904762E-1,-7.5E-1,-3.125E-1,7.167768E-2,5.357143E-2,-3.6241612E-1,2.5E-1,-9.0625E-1,4E-1,-6.25E-1,5.3135574E-2,-2.9788127E-2,5.4611564E-2,-2.9343527E-2,7.996693E-2,4.004848E-2,3.0719005E-2,-5.4611564E-2,2.559917E-3,-4.572131E-2,6.655784E-2,-3.276694E-2,1.4894064E-2,-7.021487E-2,4.0958673E-2,-4.0958673E-2,7.90645E-2,2.0479336E-2,-0E0,7.266861E-2,-6.553388E-2,4.0958673E-2,-7.6797515E-2,-1.4628099E-3,4.0958673E-2,-4.866377E-2,5.5038217E-2,1.6383468E-3,-2.4202852E-2,3.8549338E-2,3.0719005E-2,-3.928689E-2,-2.0479336E-2,-6.730506E-2,2.3404958E-2,-5.7342142E-2,4.9581554E-2,-8.754525E-3,-5.371629E-2,-1.2885875E-2,-4.0958673E-2,5.4611564E-2,4.0958673E-2,-7.927485E-2,6.143801E-2,-4.0958673E-2,4.0958673E-2,-7.021487E-2],"categories":[],"categories_nodes":[],"categories_segments":[],"categories_sizes":[],"default_left":[0,0,0,0,0,0,0,0,0,0,0,0,0,0,0,0,0,0,0,0,0,0,0,0,0,0,0,0,0,0,0,0,0,0,0,0,0,0,0,0,0,0,0,0,0,0,0,0,0,0,0,0,0,0,0,0,0,0,0,0,0,0,0,0,0,0,0,0,0,0,0,0,0,0,0,0,0,0,0,0,0,0,0,0,0,0,0,0,0,0,0,0,0,0,0,0,0,0,0,0,0,0,0,0,0,0,0,0,0,0,0,0,0,0,0,0,0,0,0,0,0,0,0,0,0,0,0,0,0,0,0,0,0,0,0,0,0,0,0,0,0],"id":10,"left_children":[1,3,5,7,9,11,13,15,17,19,21,23,25,27,29,31,33,35,37,39,-1,41,43,45,47,49,51,53,-1,-1,55,57,-1,59,61,63,65,67,69,71,-1,-1,-1,-1,73,75,77,79,81,83,85,87,89,91,-1,-1,-1,-1,-1,-1,-1,-1,-1,93,95,97,99,-1,101,103,105,107,109,-1,-1,-1,-1,111,113,115,117,119,121,123,125,127,-1,129,131,133,135,137,139,-1,-1,-1,-1,-1,-1,-1,-1,-1,-1,-1,-1,-1,-1,-1,-1,-1,-1,-1,-1,-1,-1,-1,-1,-1,-1,-1,-1,-1,-1,-1,-1,-1,-1,-1,-1,-1,-1,-1,-1,-1,-1,-1,-1,-1,-1,-1,-1],"loss_changes":[3.209201E2,5.464267E1,1.3357071E2,4.5338703E1,8.880554E0,5.4297436E1,2.7294312E0,5.1307297E0,2.486915E1,6.766968E0,1.301711E1,2.8484856E1,2.5474365E1,5.021242E0,4.164734E-1,4.87987E0,4.663025E0,1.8282959E1,1.0758539E1,3.2709503E0,0E0,3.081871E0,4.3822846E0,1.2826809E1,2.4596264E1,1.1052567E1,1.3582513E1,3.4111252E0,0E0,0E0,2.2E0,5.1717176E0,0E0,1.5833334E0,3.3252716E0,1.2797581E1,1.1070095E1,6.2309074E0,5.6300654E0,1.8096924E0,0E0,0E0,0E0,0E0,2.7818184E0,7.2777777E0,8.944199E0,1.1020493E1,8.706387E0,7.2798615E0,7.513587E0,1.3644384E1,4.1312504E0,3.175E0,0E0,0E0,0E0,0E0,0E0,0E0,0E0,0E0,0E0,8.511476E0,8.277016E0,4.6282043E0,4.5625E0,0E0,6.27795E0,5.3125E0,4.565317E0,1E0,1.0967102E0,0E0,0E0,0E0,0E0,4.305027E0,2.2E0,1.234558E1,1.0643566E1,1.1777882E1,7.188948E0,5.227722E0,7.38649E0,3.9089289E0,0E0,1.4935094E1,8.861286E0,1.5833334E0,3.251009E0,1.95E0,2.517857E0,0E0,0E0,0E0,0E0,0E0,0E0,0E0,0E0,0E0,0E0,0E0,0E0,0E0,0E0,0E0,0E0,0E0,0E0,0E0,0E0,0E0,0E0,0E0,0E0,0E0,0E0,0E0,0E0,0E0,0E0,0E0,0E0,0E0,0E0,0E0,0E0,0E0,0E0,0E0,0E0,0E0,0E0,0E0,0E0,0E0,0E0,0E0,0E0],"parents":[2147483647,0,0,1,1,2,2,3,3,4,4,5,5,6,6,7,7,8,8,9,9,10,10,11,11,12,12,13,13,14,14,15,15,16,16,17,17,18,18,19,19,21,21,22,22,23,23,24,24,25,25,26,26,27,27,30,30,31,31,33,33,34,34,35,35,36,36,37,37,38,38,39,39,44,44,45,45,46,46,47,47,48,48,49,49,50,50,51,51,52,52,53,53,63,63,64,64,65,65,66,66,68,68,69,69,70,70,71,71,72,72,77,77,78,78,79,79,80,80,81,81,82,82,83,83,84,84,85,85,87,87,88,88,89,89,90,90,91,91,92,92],"right_children":[2,4,6,8,10,12,14,16,18,20,22,24,26,28,30,32,34,36,38,40,-1,42,44,46,48,50,52,54,-1,-1,56,58,-1,60,62,64,66,68,70,72,-1,-1,-1,-1,74,76,78,80,82,84,86,88,90,92,-1,-1,-1,-1,-1,-1,-1,-1,-1,94,96,98,100,-1,102,104,106,108,110,-1,-1,-1,-1,112,114,116,118,120,122,124,126,128,-1,130,132,134,136,138,140,-1,-1,-1,-1,-1,-1,-1,-1,-1,-1,-1,-1,-1,-1,-1,-1,-1,-1,-1,-1,-1,-1,-1,-1,-1,-1,-1,-1,-1,-1,-1,-1,-1,-1,-1,-1,-1,-1,-1,-1,-1,-1,-1,-1,-1,-1,-1,-1],"split_conditions":[9.859513E0,1.360147E0,2.3960384E1,6.7675695E0,1.5386093E2,1.26895424E2,2.5747427E1,1.138E2,1.4695355E2,8.376157E0,1.021E2,1E0,2.6683328E0,1E0,1E0,1.317295E2,3.47E1,2.7658634E0,2.4020824E0,1.7800212E2,-2.9000128E-4,1E0,5.2611785E0,-1.2858127E0,2.8160255E0,1E0,1.137E2,9.69E1,6.9016016E-5,-1.5382387E-3,2E0,1.1394852E2,-9.791797E-5,-9.748099E-1,1.6897292E0,3.330135E1,1.2942505E2,3.62E1,1.6436751E2,3.14E1,-1.4056856E-4,7.834684E-3,-3.7775325E-4,2.7944446E-2,1.111E2,4.23E1,5.35E1,1.3101526E1,1.3275803E2,8.231393E1,1.555635E0,1.6343262E2,4.604346E0,2E0,-1.1594094E-3,7.3128125E-5,-2.137174E-3,2.7967251E-3,-2.7386227E-4,8.926438E-3,-7.8962225E-4,6.576513E-3,-2.294878E-4,1.3962025E2,3.840939E1,8.354639E0,-3.860685E-1,-2.4289436E-4,4.02E1,1.5724902E2,4.44E1,2E0,1.7844131E2,1.5656212E-3,-2.2777033E-4,-7.274673E-4,1.3789824E-3,1.125586E0,2.673538E0,1.4422206E0,1.047164E0,3.436568E1,9.84124E0,1.3008665E2,4.4167675E1,1.2909386E2,4.6872962E-4,2.5890924E1,1.5231546E0,2E0,9.9368E0,1.383889E0,2.8E1,1.014962E-3,-1.1982888E-4,6.314383E-4,-6.232464E-5,3.1516007E-3,1.007547E-3,6.455119E-4,-9.1878734E-5,8.180888E-6,-1.1154439E-4,6.1245513E-4,-2.4241372E-4,4.8986357E-4,-2.1979574E-4,1.6146821E-3,-3.7146988E-4,5.9651462E-3,4.782214E-3,3.685807E-3,2.945479E-3,-3.4011086E-3,2.86674E-3,-8.386746E-4,-9.089671E-6,5.71721E-4,-1.2129444E-3,1.011689E-3,1.1523064E-6,-2.5799853E-4,2.9043845E-4,2.7091894E-4,-5.446662E-4,-3.510186E-4,-9.851344E-4,1.825568E-4,-8.0087583E-4,4.0544095E-4,-8.4129046E-5,-1.1269232E-3,-2.3475618E-4,-1.0259204E-3,2.338069E-3,1.2689458E-3,-2.1089339E-3,8.414889E-5,-7.181248E-4,1.1570822E-4,-1.5261026E-4],"split_indices":[72,73,72,72,80,77,72,6,77,75,8,42,74,56,66,77,7,75,74,77,0,69,72,3,74,81,6,6,0,0,0,78,0,3,3,4,79,7,77,7,0,0,0,0,6,7,7,72,79,78,73,77,75,0,0,0,0,0,0,0,0,0,0,78,78,72,3,0,7,78,7,0,78,0,0,0,0,2,2,75,2,4,76,77,79,78,0,4,73,0,72,2,9,0,0,0,0,0,0,0,0,0,0,0,0,0,0,0,0,0,0,0,0,0,0,0,0,0,0,0,0,0,0,0,0,0,0,0,0,0,0,0,0,0,0,0,0,0,0,0,0],"split_type":[0,0,0,0,0,0,0,0,0,0,0,0,0,0,0,0,0,0,0,0,0,0,0,0,0,0,0,0,0,0,0,0,0,0,0,0,0,0,0,0,0,0,0,0,0,0,0,0,0,0,0,0,0,0,0,0,0,0,0,0,0,0,0,0,0,0,0,0,0,0,0,0,0,0,0,0,0,0,0,0,0,0,0,0,0,0,0,0,0,0,0,0,0,0,0,0,0,0,0,0,0,0,0,0,0,0,0,0,0,0,0,0,0,0,0,0,0,0,0,0,0,0,0,0,0,0,0,0,0,0,0,0,0,0,0,0,0,0,0,0,0],"sum_hessian":[2.238E3,6.91E2,1.547E3,4.53E2,2.38E2,1.231E3,3.16E2,1.06E2,3.47E2,2.08E2,3E1,5.45E2,6.86E2,3.5E1,2.81E2,1.3E1,9.3E1,2.2E2,1.27E2,2.06E2,2E0,1.8E1,1.2E1,8.3E1,4.62E2,3.37E2,3.49E2,3.3E1,2E0,2.76E2,5E0,1E1,3E0,3E0,9E1,1.2E2,1E2,9.2E1,3.5E1,2.05E2,1E0,1.7E1,1E0,2E0,1E1,1.1E1,7.2E1,2.91E2,1.71E2,3.15E2,2.2E1,3.15E2,3.4E1,1.1E1,2.2E1,1E0,4E0,8E0,2E0,1E0,2E0,8.9E1,1E0,4.6E1,7.4E1,8.5E1,1.5E1,1.9E1,7.3E1,1.9E1,1.6E1,2E0,2.03E2,1E0,9E0,8E0,3E0,6.7E1,5E0,1.82E2,1.09E2,1.12E2,5.9E1,1.04E2,2.11E2,1.5E1,7E0,1.67E2,1.48E2,3E0,3.1E1,4E0,7E0,3.6E1,1E1,8E0,6.6E1,4.1E1,4.4E1,7E0,8E0,3.1E1,4.2E1,1.5E1,4E0,1E1,6E0,1E0,1E0,2E2,3E0,6E0,6.1E1,4E0,1E0,1.5E1,1.67E2,9E0,1E2,6.3E1,4.9E1,4.3E1,1.6E1,7E0,9.7E1,2.7E1,1.84E2,6E0,9E0,3.7E1,1.3E2,6E1,8.8E1,1E0,2E0,1E0,3E1,3E0,1E0,1E0,6E0],"tree_param":{"num_deleted":"0","num_feature":"85","num_nodes":"141","size_leaf_vector":"1"}},{"base_weights":[-1.21482804E-1,1.9088098E-1,-5.4862577E-1,6.075949E-1,7.777778E-3,-3.599374E-1,-9.383117E-1,1.8897638E-1,8.02974E-1,-1.6773163E-1,4.0727273E-1,-1.13879E-1,-5.5153203E-1,4.0958673E-2,-9.446254E-1,9.117647E-1,-7.446808E-2,-3.75E-1,8.3587784E-1,8.178439E-2,-3.547486E-1,5.8128077E-1,-8.219178E-2,2.4468085E-1,-2.925532E-1,-6.030303E-1,3.3333335E-2,-7.169811E-1,-8.095361E-2,7.9435006E-2,-4.0958673E-2,3.6363637E-1,-3.0645162E-1,5.4611564E-2,-6.8264455E-2,2.7586207E-1,9.017094E-1,5.1666665E-1,-4.2857144E-2,-2.5704226E-1,-7.2E-1,-4.4444445E-1,6.2564105E-1,1.9565217E-1,-5.3571427E-1,3.690476E-1,-7.2727275E-1,1.3888889E-2,-4.7863248E-1,-6.2153846E-1,5E-1,-2.0833333E-1,7.021487E-2,-4E-1,-7.909261E-2,7.645619E-2,-1.0526316E-1,-4.7916666E-1,2.6666668E-1,-4.1666666E-1,7.222222E-1,9.173913E-1,-0E0,6.938776E-1,-2.5E-1,-3.7974682E-1,1.590909E-1,-5.816327E-1,-8.55615E-2,-3.7037036E-1,-8.979592E-1,-7.021487E-2,5.4611564E-2,1.15384616E-1,7E-1,7.058824E-1,-1E-1,5.4611564E-2,-6.5384614E-1,-3.5714287E-1,5.070422E-1,-7.372561E-2,4.0958673E-2,3.255814E-1,-4.3333334E-1,-2.4358974E-1,-9.25E-1,-6.514658E-1,-1.0526316E-1,-4.0958673E-2,6.553388E-2,6.143801E-2,-3.809524E-1,4E-1,-5.714286E-1,6.553388E-2,-3.276694E-2,-5.4611564E-2,2.4575206E-2,-6.143801E-2,4.778512E-2,-5.7342142E-2,5.4611564E-2,7.645619E-2,-2.0479336E-2,-0E0,7.648035E-2,5.4611564E-2,-5.4611564E-2,7.141512E-2,-0E0,6.143801E-2,-5.4611564E-2,3.640771E-2,-3.9228026E-2,3.142035E-2,-9.557024E-3,-1.791942E-2,-6.1132345E-2,-1.6948417E-2,2.6670763E-2,-5.7824012E-2,1.4894064E-2,-7.6797515E-2,4.0958673E-2,2.8671071E-2,-4.6809915E-2,3.7148565E-2,7.7098675E-2,6.655784E-2,-4.0958673E-2,4.468219E-2,-3.6862805E-2,2.0479336E-2,-6.410923E-2,-4.778512E-2,5.4611564E-2,4.698201E-2,-6.143801E-2,-2.4575206E-2,4.0958673E-2,-6.655784E-2,-0E0,-5.371629E-3,-6.8264455E-2,-7.9761624E-2,-0E0,-5.4253455E-2,5.4611564E-2,4.6809915E-2,-3.7808005E-2,-6.3013345E-2,1.8203855E-2,-4.0958673E-2,6.143801E-2,-6.036015E-2,5.4611564E-2],"categories":[],"categories_nodes":[],"categories_segments":[],"categories_sizes":[],"default_left":[0,0,0,0,0,0,0,0,0,0,0,0,0,0,0,0,0,0,0,0,0,0,0,0,0,0,0,0,0,0,0,0,0,0,0,0,0,0,0,0,0,0,0,0,0,0,0,0,0,0,0,0,0,0,0,0,0,0,0,0,0,0,0,0,0,0,0,0,0,0,0,0,0,0,0,0,0,0,0,0,0,0,0,0,0,0,0,0,0,0,0,0,0,0,0,0,0,0,0,0,0,0,0,0,0,0,0,0,0,0,0,0,0,0,0,0,0,0,0,0,0,0,0,0,0,0,0,0,0,0,0,0,0,0,0,0,0,0,0,0,0,0,0,0,0,0,0,0,0,0,0,0,0,0,0,0,0],"id":11,"left_children":[1,3,5,7,9,11,13,15,17,19,21,23,25,-1,27,29,31,33,35,37,39,41,43,45,47,49,51,53,-1,-1,-1,55,57,-1,-1,59,61,63,65,67,69,71,73,75,77,79,81,83,85,87,89,91,-1,93,-1,-1,95,97,99,101,103,105,107,109,111,113,115,117,119,121,123,-1,-1,125,127,129,131,-1,133,135,137,-1,-1,139,141,143,145,147,149,-1,-1,-1,151,153,155,-1,-1,-1,-1,-1,-1,-1,-1,-1,-1,-1,-1,-1,-1,-1,-1,-1,-1,-1,-1,-1,-1,-1,-1,-1,-1,-1,-1,-1,-1,-1,-1,-1,-1,-1,-1,-1,-1,-1,-1,-1,-1,-1,-1,-1,-1,-1,-1,-1,-1,-1,-1,-1,-1,-1,-1,-1,-1,-1,-1,-1,-1],"loss_changes":[2.9884106E2,9.872962E1,6.922092E1,3.215503E1,6.317192E1,3.0061874E1,3.269287E0,2.425055E1,1.0739868E1,2.9240509E1,2.3469738E1,1.8073957E1,1.0833015E1,0E0,2.339203E0,3.2655983E0,9.664941E0,4.375E0,9.410324E0,1.4603124E1,1.2591011E1,9.514854E0,9.303433E0,1.1631E1,1.0726883E1,7.047737E0,6.1511903E0,3.7891998E0,0E0,0E0,0E0,8.913557E0,6.264919E0,0E0,0E0,9.265326E0,3.3088837E0,8.3251705E0,1.43476E1,1.5757961E1,4.333908E0,4.698413E0,7.3179474E0,7.0097194E0,4.413004E0,8.59876E0,2.7818184E0,1.0177584E1,1.2049784E1,4.9529266E0,2.2E0,4.2559524E0,0E0,3.657143E0,0E0,0E0,5.389474E0,7.2125006E0,5.266667E0,4.1500006E0,3.9277773E0,3.4260101E0,2.6666667E0,6.0491886E0,5.5E0,6.6670637E0,8.215484E0,5.6916237E0,9.396051E0,5.130521E0,3.1772957E0,0E0,0E0,4.3895607E0,9.6801605E0,2.5919113E0,7.022727E0,0E0,3.221572E0,3.6309528E0,6.364126E0,0E0,0E0,4.8418603E0,4.929167E0,8.134089E0,1.8013191E0,4.823761E0,4.8444185E0,0E0,0E0,0E0,5.0891333E0,1.95E0,4.7919793E0,0E0,0E0,0E0,0E0,0E0,0E0,0E0,0E0,0E0,0E0,0E0,0E0,0E0,0E0,0E0,0E0,0E0,0E0,0E0,0E0,0E0,0E0,0E0,0E0,0E0,0E0,0E0,0E0,0E0,0E0,0E0,0E0,0E0,0E0,0E0,0E0,0E0,0E0,0E0,0E0,0E0,0E0,0E0,0E0,0E0,0E0,0E0,0E0,0E0,0E0,0E0,0E0,0E0,0E0,0E0,0E0,0E0,0E0,0E0,0E0,0E0,0E0],"parents":[2147483647,0,0,1,1,2,2,3,3,4,4,5,5,6,6,7,7,8,8,9,9,10,10,11,11,12,12,14,14,15,15,16,16,17,17,18,18,19,19,20,20,21,21,22,22,23,23,24,24,25,25,26,26,27,27,31,31,32,32,35,35,36,36,37,37,38,38,39,39,40,40,41,41,42,42,43,43,44,44,45,45,46,46,47,47,48,48,49,49,50,50,51,51,53,53,56,56,57,57,58,58,59,59,60,60,61,61,62,62,63,63,64,64,65,65,66,66,67,67,68,68,69,69,70,70,73,73,74,74,75,75,76,76,78,78,79,79,80,80,83,83,84,84,85,85,86,86,87,87,88,88,92,92,93,93,94,94],"right_children":[2,4,6,8,10,12,14,16,18,20,22,24,26,-1,28,30,32,34,36,38,40,42,44,46,48,50,52,54,-1,-1,-1,56,58,-1,-1,60,62,64,66,68,70,72,74,76,78,80,82,84,86,88,90,92,-1,94,-1,-1,96,98,100,102,104,106,108,110,112,114,116,118,120,122,124,-1,-1,126,128,130,132,-1,134,136,138,-1,-1,140,142,144,146,148,150,-1,-1,-1,152,154,156,-1,-1,-1,-1,-1,-1,-1,-1,-1,-1,-1,-1,-1,-1,-1,-1,-1,-1,-1,-1,-1,-1,-1,-1,-1,-1,-1,-1,-1,-1,-1,-1,-1,-1,-1,-1,-1,-1,-1,-1,-1,-1,-1,-1,-1,-1,-1,-1,-1,-1,-1,-1,-1,-1,-1,-1,-1,-1,-1,-1,-1,-1],"split_conditions":[1.3101526E1,8.185964E0,2.4339268E1,2.4186773E0,1.4142135E0,1E0,4.925444E0,6.4031243E0,3.36E1,8.671923E1,1.438691E2,1.633677E1,1E0,2.5252783E-5,2.701407E1,1.642372E0,9.818465E1,9.038453E1,7.211103E-1,9.50358E1,1.6219466E2,2.758623E0,1.129E2,1.132E2,1.013E2,1E0,8.8E1,9.76E1,-1.5142655E-3,5.9743407E-3,-2.1068897E-4,9.187349E1,1.138E2,2.3331076E-3,-3.1435688E-4,2.0223749E0,4.67E1,9.3E1,2.3259406E0,1.4142135E0,1.12455055E2,2.4020824E0,-1.0316622E0,8.8084335E1,2.299413E1,4.472136E0,1E0,4.17E1,1.9723083E1,2.7856777E0,1.041E2,2.7653807E1,2.6401243E-4,1.38E1,-1.2078771E-3,3.0957614E-3,6.456135E1,3.138471E0,1.1036121E2,1.137E2,1.149885E2,2.7018511E0,1.630923E0,4.3931767E1,8.980535E0,2.7674175E1,1.4847316E2,3.3031048E1,1E0,9E-1,7.69E1,-3.9241067E-4,1.4517587E-3,-1.1322831E0,8.56E1,1.3901777E0,7.67378E1,1.5957335E-3,7.1E0,7.5736815E-1,7.52E1,-2.214226E-3,5.1841033E-3,3.19E1,2E0,1.104E2,1E0,1.2070211E1,1.1082685E2,-1.5418212E-3,1.2395288E-3,3.2940963E-3,3.9042667E1,2.76E1,1E0,3.7643066E-4,-1.5797614E-4,-1.4157408E-4,4.0496736E-5,-2.1340983E-4,1.0921253E-3,-2.3853414E-4,2.5982338E-3,4.638941E-3,-1.9785735E-5,2.5671397E-3,6.7853476E-3,1.7541262E-3,-3.719557E-4,1.1949906E-3,1.4751841E-4,2.5446936E-3,-1.1599356E-4,4.1320378E-5,-2.11299E-4,3.2745858E-4,-5.9042886E-5,-1.17991476E-4,-4.5285872E-4,-1.266617E-4,4.1463837E-4,-3.028808E-4,4.8706766E-5,-3.8144944E-4,2.1988947E-3,1.4949625E-3,-3.137072E-4,1.9172896E-3,2.107726E-3,1.0950954E-3,-7.962633E-4,4.4821392E-4,-2.1516514E-4,7.1099564E-4,-5.017116E-4,-2.2232984E-4,1.4060137E-3,1.2660198E-3,-2.0936943E-4,-3.036706E-4,3.7137164E-5,-4.0629908E-4,1.1227816E-5,-1.6414568E-5,-2.0971433E-3,-1.0785314E-3,-3.9158063E-4,-1.2348929E-3,3.1326704E-3,1.1569883E-3,-1.3532426E-3,-1.1212619E-3,2.1545718E-4,-7.107442E-4,8.9587855E-5,-5.3335127E-4,3.7026952E-4],"split_indices":[72,72,72,75,73,34,76,72,7,78,77,72,81,0,72,3,77,77,73,77,77,76,6,6,6,39,8,6,0,0,0,78,6,0,0,74,7,8,75,74,78,75,3,78,4,76,22,7,72,73,6,79,0,9,0,0,80,76,77,6,80,76,2,4,72,4,77,4,82,73,9,0,0,3,8,3,79,0,9,3,9,0,0,7,0,6,24,76,79,0,0,0,4,7,21,0,0,0,0,0,0,0,0,0,0,0,0,0,0,0,0,0,0,0,0,0,0,0,0,0,0,0,0,0,0,0,0,0,0,0,0,0,0,0,0,0,0,0,0,0,0,0,0,0,0,0,0,0,0,0,0,0,0,0,0,0,0],"split_type":[0,0,0,0,0,0,0,0,0,0,0,0,0,0,0,0,0,0,0,0,0,0,0,0,0,0,0,0,0,0,0,0,0,0,0,0,0,0,0,0,0,0,0,0,0,0,0,0,0,0,0,0,0,0,0,0,0,0,0,0,0,0,0,0,0,0,0,0,0,0,0,0,0,0,0,0,0,0,0,0,0,0,0,0,0,0,0,0,0,0,0,0,0,0,0,0,0,0,0,0,0,0,0,0,0,0,0,0,0,0,0,0,0,0,0,0,0,0,0,0,0,0,0,0,0,0,0,0,0,0,0,0,0,0,0,0,0,0,0,0,0,0,0,0,0,0,0,0,0,0,0,0,0,0,0,0,0],"sum_hessian":[2.238E3,1.293E3,9.45E2,3.94E2,8.99E2,6.38E2,3.07E2,1.26E2,2.68E2,6.25E2,2.74E2,2.8E2,3.58E2,1E0,3.06E2,3.3E1,9.3E1,7E0,2.61E2,2.68E2,3.57E2,2.02E2,7.2E1,9.3E1,1.87E2,3.29E2,2.9E1,5.2E1,2.54E2,3.2E1,1E0,3.2E1,6.1E1,2E0,5E0,2.8E1,2.33E2,5.9E1,2.09E2,2.83E2,7.4E1,8E0,1.94E2,4.5E1,2.7E1,8.3E1,1E1,7.1E1,1.16E2,3.24E2,5E0,2.3E1,6E0,2.4E1,2.8E1,1.4E1,1.8E1,4.7E1,1.4E1,1.1E1,1.7E1,2.29E2,4E0,4.8E1,1.1E1,7.8E1,1.31E2,9.7E1,1.86E2,2.6E1,4.8E1,6E0,2E0,2.5E1,1.69E2,1.6E1,2.9E1,2E0,2.5E1,1.3E1,7E1,9E0,1E0,4.2E1,2.9E1,7.7E1,3.9E1,3.06E2,1.8E1,1E0,4E0,3E0,2E1,4E0,2E1,4E0,1.4E1,3.8E1,9E0,3E0,1.1E1,9E0,2E0,1.4E1,3E0,4E0,2.25E2,2E0,2E0,3.8E1,1E1,3E0,8E0,8E0,7E1,7.2E1,5.9E1,3.1E1,6.6E1,1.44E2,4.2E1,1.6E1,1E1,4.7E1,1E0,1.9E1,6E0,8.5E1,8.4E1,1.5E1,1E0,1E1,1.9E1,3E0,2.2E1,1.1E1,2E0,6.7E1,3E0,9E0,3.3E1,1.5E1,1.4E1,6E1,1.7E1,3.7E1,2E0,3.04E2,2E0,6E0,1.2E1,1.2E1,8E0,1E0,3E0,1.8E1,2E0],"tree_param":{"num_deleted":"0","num_feature":"85","num_nodes":"157","size_leaf_vector":"1"}},{"base_weights":[-1.2952211E-1,2.6E-1,-4.7310925E-1,6.026667E-1,6.952663E-2,-3.0778033E-1,-9.274448E-1,-2.962963E-1,6.704871E-1,-8.0078125E-2,5.3333336E-1,-3.8338657E-2,-4.572954E-1,-7.125E-1,-8.157315E-2,4.4444445E-1,-6.315789E-1,7.740741E-1,3.125E-1,7.854985E-2,-3.6813188E-1,6.524823E-1,-1.6E-1,1.5311004E-1,-4.1904762E-1,-2.1118012E-1,-5.5472636E-1,-7.5641024E-1,5.4611564E-2,6.8264455E-2,-2.5E-1,-7.50909E-2,-1.25E-1,8.038462E-1,-0E0,8.333333E-1,-0E0,3.125E-1,-1.8589744E-1,4.375E-1,-4.4311377E-1,7.007299E-1,-6.553388E-2,1.6666667E-1,-7.167768E-2,4.673913E-1,-9.322034E-2,-7.8125E-1,-2.5675675E-1,-3.539823E-2,-6.122449E-1,-3.3064517E-1,-6.5232974E-1,5.4611564E-2,-8.0263156E-1,-5.4611564E-2,4.0958673E-2,4E-1,-6.143801E-2,-5.4611564E-2,8.1782943E-1,6.553388E-2,-5.714286E-1,8.965517E-1,-4.0958673E-2,8.235294E-1,-4E-1,5.181818E-1,-2.9850746E-2,-3.6697248E-1,2.2916667E-1,-6.143801E-2,7.692308E-1,-3.3088234E-1,-9.0625E-1,-2.857143E-1,7.480916E-1,-6.553388E-2,5E-1,5.697674E-1,-7.021487E-2,5.319149E-2,-6.4E-1,-8.965517E-1,2.5E-1,5.4054055E-2,-5.5263156E-1,5E-1,-1.9318181E-1,-7.173913E-1,6.143801E-2,-6.142857E-1,3.6363635E-2,-6.896552E-2,-7.171315E-1,-8.4931505E-1,2.5E-1,6.143801E-2,-4.0958673E-2,-1.3652891E-2,6.864221E-2,-6.8264455E-2,4.0958673E-2,-4.0958673E-2,7.8991726E-2,7.6797515E-2,-4.0958673E-2,4.5509636E-3,-6.8264455E-2,-6.8264455E-2,4.8370246E-2,-5.7824012E-2,1.6062224E-2,-1.4246495E-2,-5.5943552E-2,4.6809915E-2,-5.266115E-2,-4.0958673E-2,7.50909E-2,-1.2101426E-2,-5.3497043E-2,-7.927485E-2,4.0958673E-2,-6.553388E-2,5.4611564E-2,-3.276694E-2,6.4501844E-2,6.143801E-2,-5.4611564E-2,6.717222E-2,1.771186E-2,1.3492269E-2,-7.372561E-2,-8.191735E-3,-7.6797515E-2,-0E0,-7.888337E-2,5.4611564E-2,-4.0958673E-2,7.281542E-2,-1.6948417E-2,-5.119834E-3,-7.1232475E-2,-5.4611564E-2,5.119834E-2,3.0912207E-3,-4.3234155E-2,-6.5161526E-2,5.4611564E-2,-2.0479336E-2,-6.858196E-2,4.2739484E-2,-2.4823438E-2,-3.1206608E-2,5.4611564E-2,-6.1096687E-2,-6.8264455E-3,-7.348468E-2,-1.3652891E-2,5.4611564E-2,-4.0958673E-2],"categories":[],"categories_nodes":[],"categories_segments":[],"categories_sizes":[],"default_left":[0,0,0,0,0,0,0,0,0,0,0,0,0,0,0,0,0,0,0,0,0,0,0,0,0,0,0,0,0,0,0,0,0,0,0,0,0,0,0,0,0,0,0,0,0,0,0,0,0,0,0,0,0,0,0,0,0,0,0,0,0,0,0,0,0,0,0,0,0,0,0,0,0,0,0,0,0,0,0,0,0,0,0,0,0,0,0,0,0,0,0,0,0,0,0,0,0,0,0,0,0,0,0,0,0,0,0,0,0,0,0,0,0,0,0,0,0,0,0,0,0,0,0,0,0,0,0,0,0,0,0,0,0,0,0,0,0,0,0,0,0,0,0,0,0,0,0,0,0,0,0,0,0,0,0,0,0,0,0,0,0],"id":12,